{"learner":{"attributes":{"best_iteration":"52","best_score":"0.6475130127761802","scikit_learn":"{\"_estimator_type\": \"classifier\"}"},"feature_names":[],"feature_types":[],"gradient_booster":{"model":{"gbtree_model_param":{"num_parallel_tree":"1","num_trees":"73"},"iteration_indptr":[0,1,2,3,4,5,6,7,8,9,10,11,12,13,14,15,16,17,18,19,20,21,22,23,24,25,26,27,28,29,30,31,32,33,34,35,36,37,38,39,40,41,42,43,44,45,46,47,48,49,50,51,52,53,54,55,56,57,58,59,60,61,62,63,64,65,66,67,68,69,70,71,72,73],"tree_info":[0,0,0,0,0,0,0,0,0,0,0,0,0,0,0,0,0,0,0,0,0,0,0,0,0,0,0,0,0,0,0,0,0,0,0,0,0,0,0,0,0,0,0,0,0,0,0,0,0,0,0,0,0,0,0,0,0,0,0,0,0,0,0,0,0,0,0,0,0,0,0,0,0],"trees":[{"base_weights":[-2.8828714E-2,-1.9843413E-1,2.0143855E-1,-4.0815648E-1,-5.9665482E-2,-5.6204814E-2,3.764369E-1,-4.658513E-3,1.7437347E-3,-2.0359457E-3,2.3996644E-3,-1.2238841E-2,-0E0,-9.161875E-3,4.160231E-3],"categories":[],"categories_nodes":[],"categories_segments":[],"categories_sizes":[],"default_left":[0,0,0,0,0,0,0,0,0,0,0,0,0,0,0],"id":0,"left_children":[1,3,5,7,9,11,13,-1,-1,-1,-1,-1,-1,-1,-1],"loss_changes":[1.7973526E1,7.502425E0,8.91746E0,3.698433E0,7.0032787E0,4.622475E0,5.914505E0,0E0,0E0,0E0,0E0,0E0,0E0,0E0,0E0],"parents":[2147483647,0,0,1,1,2,2,3,3,4,4,5,5,6,6],"right_children":[2,4,6,8,10,12,14,-1,-1,-1,-1,-1,-1,-1,-1],"split_conditions":[1.9732244E-1,1.3195575E-2,-2.1179815E-1,1.2285026E0,4.072592E-1,2.3175699E-1,-1.8605069E0,-4.658513E-3,1.7437347E-3,-2.0359457E-3,2.3996644E-3,-1.2238841E-2,-0E0,-9.161875E-3,4.160231E-3],"split_indices":[6,5,4,1,4,6,1,0,0,0,0,0,0,0,0],"split_type":[0,0,0,0,0,0,0,0,0,0,0,0,0,0,0],"sum_hessian":[4.5924237E2,2.6574557E2,1.9349678E2,1.0399827E2,1.6174731E2,7.724872E1,1.1624807E2,9.549841E1,8.499859E0,1.1049816E2,5.124915E1,2.7499542E0,7.4498764E1,2.7499542E0,1.13498116E2],"tree_param":{"num_deleted":"0","num_feature":"8","num_nodes":"15","size_leaf_vector":"1"}},{"base_weights":[1.5686989E-2,3.6573142E-1,-2.9490075E-1,5.499755E-1,1.3185717E-1,-2.2885436E-1,-7.7686536E-1,3.0397733E-3,8.440602E-3,-6.257471E-3,1.7978261E-3,-3.71156E-3,-1.0554531E-4,-1.704844E-2,-5.417496E-3],"categories":[],"categories_nodes":[],"categories_segments":[],"categories_sizes":[],"default_left":[0,0,0,0,0,0,0,0,0,0,0,0,0,0,0],"id":1,"left_children":[1,3,5,7,9,11,13,-1,-1,-1,-1,-1,-1,-1,-1],"loss_changes":[5.1893135E1,9.317888E0,7.429741E0,8.304394E0,3.5003572E0,6.7421703E0,4.79657E0,0E0,0E0,0E0,0E0,0E0,0E0,0E0,0E0],"parents":[2147483647,0,0,1,1,2,2,3,3,4,4,5,5,6,6],"right_children":[2,4,6,8,10,12,14,-1,-1,-1,-1,-1,-1,-1,-1],"split_conditions":[5.470497E-3,-5.619884E-1,1.7078471E0,1.2394287E-1,-1.0036178E0,1.3368E-1,-1.2445744E0,3.0397733E-3,8.440602E-3,-6.257471E-3,1.7978261E-3,-3.71156E-3,-1.0554531E-4,-1.704844E-2,-5.417496E-3],"split_indices":[2,2,2,4,5,6,4,0,0,0,0,0,0,0,0],"split_type":[0,0,0,0,0,0,0,0,0,0,0,0,0,0,0],"sum_hessian":[4.7599033E2,2.2449586E2,2.5149446E2,1.2399779E2,1.0049807E2,2.2274522E2,2.8749231E1,6.899845E1,5.4999336E1,4.999819E0,9.5498245E1,1.332463E2,8.9498924E1,4.7498574E0,2.3999374E1],"tree_param":{"num_deleted":"0","num_feature":"8","num_nodes":"15","size_leaf_vector":"1"}},{"base_weights":[3.8869947E-2,3.3379865E-1,-2.1620181E-1,4.7906712E-1,1.5849133E-1,-4.2873096E-1,-1.9105313E-2,9.645794E-3,3.7500253E-3,-1.8603858E-3,2.795643E-3,-6.9348845E-3,-2.0567328E-3,-1.48772625E-2,1.0954759E-4],"categories":[],"categories_nodes":[],"categories_segments":[],"categories_sizes":[],"default_left":[0,0,0,0,0,0,0,0,0,0,0,0,0,0,0],"id":2,"left_children":[1,3,5,7,9,11,13,-1,-1,-1,-1,-1,-1,-1,-1],"loss_changes":[3.5601555E1,5.2458534E0,1.03484745E1,5.1364746E0,4.3274574E0,6.5803013E0,6.6068172E0,0E0,0E0,0E0,0E0,0E0,0E0,0E0,0E0],"parents":[2147483647,0,0,1,1,2,2,3,3,4,4,5,5,6,6],"right_children":[2,4,6,8,10,12,14,-1,-1,-1,-1,-1,-1,-1,-1],"split_conditions":[5.470497E-3,-5.619884E-1,-7.101171E-3,-6.249031E-1,-4.4045895E-1,-8.158514E-2,-2.3902109E0,9.645794E-3,3.7500253E-3,-1.8603858E-3,2.795643E-3,-6.9348845E-3,-2.0567328E-3,-1.48772625E-2,1.0954759E-4],"split_indices":[2,2,1,1,4,4,4,0,0,0,0,0,0,0,0],"split_type":[0,0,0,0,0,0,0,0,0,0,0,0,0,0,0],"sum_hessian":[4.7148755E2,2.1949762E2,2.5198991E2,1.17999115E2,1.014985E2,1.1974473E2,1.322452E2,1.9249859E1,9.874926E1,2.5249502E1,7.6249E1,5.3247143E1,6.649758E1,2.4998426E0,1.2974535E2],"tree_param":{"num_deleted":"0","num_feature":"8","num_nodes":"15","size_leaf_vector":"1"}},{"base_weights":[2.3614941E-2,4.326749E-1,-1.7324084E-1,6.100426E-1,5.770718E-2,-8.058912E-2,-6.802825E-1,3.7806516E-3,8.275855E-3,1.4512515E-2,-1.1594042E-4,-2.5960766E-3,9.3050406E-4,-7.457883E-3,7.627368E-3],"categories":[],"categories_nodes":[],"categories_segments":[],"categories_sizes":[],"default_left":[0,0,0,0,0,0,0,0,0,0,0,0,0,0,0],"id":3,"left_children":[1,3,5,7,9,11,13,-1,-1,-1,-1,-1,-1,-1,-1],"loss_changes":[3.797276E1,9.857279E0,1.4460081E1,4.45121E0,5.6293335E0,8.456818E0,4.812784E0,0E0,0E0,0E0,0E0,0E0,0E0,0E0,0E0],"parents":[2147483647,0,0,1,1,2,2,3,3,4,4,5,5,6,6],"right_children":[2,4,6,8,10,12,14,-1,-1,-1,-1,-1,-1,-1,-1],"split_conditions":[-3.7283543E-1,2.1184668E-1,1.3295412E0,-1.659988E-2,-2.075212E0,5.326055E-2,1.5997351E0,3.7806516E-3,8.275855E-3,1.4512515E-2,-1.1594042E-4,-2.5960766E-3,9.3050406E-4,-7.457883E-3,7.627368E-3],"split_indices":[2,7,2,4,2,4,3,0,0,0,0,0,0,0,0],"split_type":[0,0,0,0,0,0,0,0,0,0,0,0,0,0,0],"sum_hessian":[4.6898376E2,1.529986E2,3.1598517E2,1.0274916E2,5.024943E1,2.6848965E2,4.7495533E1,5.14997E1,5.1249462E1,2.2499788E0,4.799945E1,1.3349313E2,1.349965E2,4.5995644E1,1.499889E0],"tree_param":{"num_deleted":"0","num_feature":"8","num_nodes":"15","size_leaf_vector":"1"}},{"base_weights":[-0E0,3.944793E-1,-1.8733552E-1,5.811636E-1,1.7490642E-2,4.8924223E-1,-2.343436E-1,-1.7763559E-3,6.3006775E-3,-1.3456278E-3,4.7906516E-3,9.468182E-3,1.3680145E-3,-5.5452236E-3,-1.1346218E-3],"categories":[],"categories_nodes":[],"categories_segments":[],"categories_sizes":[],"default_left":[0,0,0,0,0,0,0,0,0,0,0,0,0,0,0],"id":4,"left_children":[1,3,5,7,9,11,13,-1,-1,-1,-1,-1,-1,-1,-1],"loss_changes":[3.4275158E1,1.0181677E1,9.979468E0,3.9465523E0,3.7662666E0,2.6185775E0,1.1109423E1,0E0,0E0,0E0,0E0,0E0,0E0,0E0,0E0],"parents":[2147483647,0,0,1,1,2,2,3,3,4,4,5,5,6,6],"right_children":[2,4,6,8,10,12,14,-1,-1,-1,-1,-1,-1,-1,-1],"split_conditions":[-3.7283543E-1,2.1184668E-1,-1.518355E0,-1.5457033E0,1.0300089E0,3.8377643E-1,-4.29895E-1,-1.7763559E-3,6.3006775E-3,-1.3456278E-3,4.7906516E-3,9.468182E-3,1.3680145E-3,-5.5452236E-3,-1.1346218E-3],"split_indices":[2,7,3,3,5,2,3,0,0,0,0,0,0,0,0],"split_type":[0,0,0,0,0,0,0,0,0,0,0,0,0,0,0],"sum_hessian":[4.6397595E2,1.4849695E2,3.15479E2,9.824772E1,5.0249233E1,1.9498646E1,2.9598035E2,5.249901E0,9.299782E1,3.7249397E1,1.2999836E1,7.4997573E0,1.1998889E1,7.949414E1,2.1648622E2],"tree_param":{"num_deleted":"0","num_feature":"8","num_nodes":"15","size_leaf_vector":"1"}},{"base_weights":[-1.0539787E-2,3.502009E-1,-1.8187328E-1,4.140775E-1,-6.197479E-1,4.7624275E-1,-2.3306642E-1,-6.849336E-4,4.786397E-3,-1.2353902E-4,-1.0566172E-2,7.961491E-3,6.308386E-5,-4.7659487E-3,-1.068025E-3],"categories":[],"categories_nodes":[],"categories_segments":[],"categories_sizes":[],"default_left":[0,0,0,0,0,0,0,0,0,0,0,0,0,0,0],"id":5,"left_children":[1,3,5,7,9,11,13,-1,-1,-1,-1,-1,-1,-1,-1],"loss_changes":[2.8933147E1,9.334131E0,1.0688896E1,4.637617E0,1.8470685E0,2.9786196E0,8.822184E0,0E0,0E0,0E0,0E0,0E0,0E0,0E0,0E0],"parents":[2147483647,0,0,1,1,2,2,3,3,4,4,5,5,6,6],"right_children":[2,4,6,8,10,12,14,-1,-1,-1,-1,-1,-1,-1,-1],"split_conditions":[-3.7283543E-1,1.9963505E0,-1.518355E0,-1.1526685E0,-9.402943E-1,-8.779565E-2,-3.966736E-1,-6.849336E-4,4.786397E-3,-1.2353902E-4,-1.0566172E-2,7.961491E-3,6.308386E-5,-4.7659487E-3,-1.068025E-3],"split_indices":[2,0,3,6,2,6,6,0,0,0,0,0,0,0,0],"split_type":[0,0,0,0,0,0,0,0,0,0,0,0,0,0,0],"sum_hessian":[4.6846768E2,1.4974373E2,3.1872397E2,1.4124405E2,8.499677E0,2.1998816E1,2.9672516E2,1.5749482E1,1.2549457E2,4.2497516E0,4.2499247E0,1.2249168E1,9.749647E0,9.948966E1,1.9723549E2],"tree_param":{"num_deleted":"0","num_feature":"8","num_nodes":"15","size_leaf_vector":"1"}},{"base_weights":[-1.2321695E-2,4.6064073E-1,-1.7271116E-1,5.363911E-2,5.5528027E-1,-3.462858E-2,-3.6934233E-1,5.2488116E-3,-1.6714154E-3,1.0717137E-3,6.7416904E-3,-1.8449156E-3,1.635493E-3,-4.9222787E-3,-1.4312842E-3],"categories":[],"categories_nodes":[],"categories_segments":[],"categories_sizes":[],"default_left":[0,0,0,0,0,0,0,0,0,0,0,0,0,0,0],"id":6,"left_children":[1,3,5,7,9,11,13,-1,-1,-1,-1,-1,-1,-1,-1],"loss_changes":[3.57356E1,4.264021E0,9.402272E0,2.7196326E0,4.6605835E0,6.262063E0,3.663395E0,0E0,0E0,0E0,0E0,0E0,0E0,0E0,0E0],"parents":[2147483647,0,0,1,1,2,2,3,3,4,4,5,5,6,6],"right_children":[2,4,6,8,10,12,14,-1,-1,-1,-1,-1,-1,-1,-1],"split_conditions":[-5.619884E-1,1.3195575E-2,5.729294E-1,-2.6199198E-1,-6.4123434E-1,1.9732244E-1,2.6568684E-1,5.2488116E-3,-1.6714154E-3,1.0717137E-3,6.7416904E-3,-1.8449156E-3,1.635493E-3,-4.9222787E-3,-1.4312842E-3],"split_indices":[2,5,2,4,4,6,4,0,0,0,0,0,0,0,0],"split_type":[0,0,0,0,0,0,0,0,0,0,0,0,0,0,0],"sum_hessian":[4.719577E2,1.1849167E2,3.5346603E2,2.349914E1,9.499253E1,2.0948666E2,1.4397937E2,7.999889E0,1.549925E1,2.0999346E1,7.399319E1,1.20740036E2,8.874663E1,9.148433E1,5.249504E1],"tree_param":{"num_deleted":"0","num_feature":"8","num_nodes":"15","size_leaf_vector":"1"}},{"base_weights":[-3.8816743E-2,4.3253568E-1,-1.9739735E-1,5.0385904E-1,-8.086347E-1,-3.6271727E-1,5.210727E-3,7.8208244E-4,6.3485526E-3,-0E0,-1.1053545E-2,-0E0,-4.734284E-3,-1.5695153E-3,2.5592227E-3],"categories":[],"categories_nodes":[],"categories_segments":[],"categories_sizes":[],"default_left":[0,0,0,0,0,0,0,0,0,0,0,0,0,0,0],"id":7,"left_children":[1,3,5,7,9,11,13,-1,-1,-1,-1,-1,-1,-1,-1],"loss_changes":[3.5295185E1,1.0540234E1,1.2077474E1,5.904667E0,2.0223002E0,8.093067E0,6.5232472E0,0E0,0E0,0E0,0E0,0E0,0E0,0E0,0E0],"parents":[2147483647,0,0,1,1,2,2,3,3,4,4,5,5,6,6],"right_children":[2,4,6,8,10,12,14,-1,-1,-1,-1,-1,-1,-1,-1],"split_conditions":[-5.619884E-1,1.369429E0,1.4880496E-1,-5.63155E-1,-1.3186002E0,-4.918508E-1,1.9732244E-1,7.8208244E-4,6.3485526E-3,-0E0,-1.1053545E-2,-0E0,-4.734284E-3,-1.5695153E-3,2.5592227E-3],"split_indices":[2,7,4,4,2,7,6,0,0,0,0,0,0,0,0],"split_type":[0,0,0,0,0,0,0,0,0,0,0,0,0,0,0],"sum_hessian":[4.7269485E2,1.1798598E2,3.547089E2,1.1223624E2,5.7497416E0,1.9647006E2,1.5823883E2,2.7498808E1,8.473743E1,1.2498225E0,4.499919E0,4.5243244E1,1.512268E2,9.499073E1,6.32481E1],"tree_param":{"num_deleted":"0","num_feature":"8","num_nodes":"15","size_leaf_vector":"1"}},{"base_weights":[4.4511393E-2,4.7937238E-1,-9.6946485E-2,5.1346225E-1,-6.336149E-3,-2.2068044E-2,-5.160321E-1,1.3599187E-3,6.028818E-3,5.7402817E-3,-7.0481194E-4,-5.706692E-3,7.626691E-3],"categories":[],"categories_nodes":[],"categories_segments":[],"categories_sizes":[],"default_left":[0,0,0,0,0,0,0,0,0,0,0,0,0],"id":8,"left_children":[1,3,5,7,-1,9,11,-1,-1,-1,-1,-1,-1],"loss_changes":[2.9168018E1,4.5220337E0,1.08558655E1,3.4283447E0,0E0,8.497275E0,3.805791E0,0E0,0E0,0E0,0E0,0E0,0E0],"parents":[2147483647,0,0,1,1,2,2,3,3,5,5,6,6],"right_children":[2,4,6,8,-1,10,12,-1,-1,-1,-1,-1,-1],"split_conditions":[-5.619884E-1,1.8764733E0,1.3295412E0,1.3195575E-2,-6.336149E-3,-1.518355E0,1.5997351E0,1.3599187E-3,6.028818E-3,5.7402817E-3,-7.0481194E-4,-5.706692E-3,7.626691E-3],"split_indices":[2,3,2,5,0,3,3,0,0,0,0,0,0],"split_type":[0,0,0,0,0,0,0,0,0,0,0,0,0],"sum_hessian":[4.7017865E2,1.159801E2,3.5419855E2,1.13230515E2,2.749584E0,3.0196548E2,5.2233074E1,2.2998411E1,9.02321E1,2.1498978E1,2.8046652E2,5.0733192E1,1.4998832E0],"tree_param":{"num_deleted":"0","num_feature":"8","num_nodes":"13","size_leaf_vector":"1"}},{"base_weights":[-3.2122773E-3,-1.5331903E-1,2.2125773E-1,7.595052E-2,-2.849231E-1,7.293852E-1,6.3216485E-2,-2.031704E-3,1.6864806E-3,-5.8627133E-3,-1.4972768E-3,7.983168E-3,-4.5880056E-3,1.7892912E-3,-3.241416E-3],"categories":[],"categories_nodes":[],"categories_segments":[],"categories_sizes":[],"default_left":[0,0,0,0,0,0,0,0,0,0,0,0,0,0,0],"id":9,"left_children":[1,3,5,7,9,11,13,-1,-1,-1,-1,-1,-1,-1,-1],"loss_changes":[1.5420634E1,8.448791E0,1.423421E1,2.5803037E0,6.797637E0,3.833128E0,6.253099E0,0E0,0E0,0E0,0E0,0E0,0E0,0E0,0E0],"parents":[2147483647,0,0,1,1,2,2,3,3,4,4,5,5,6,6],"right_children":[2,4,6,8,10,12,14,-1,-1,-1,-1,-1,-1,-1,-1],"split_conditions":[2.7798855E-1,-4.4925857E-1,-2.8074154E-1,-1.3018104E0,-7.853376E-1,1.9963505E0,1.0644032E0,-2.031704E-3,1.6864806E-3,-5.8627133E-3,-1.4972768E-3,7.983168E-3,-4.5880056E-3,1.7892912E-3,-3.241416E-3],"split_indices":[6,7,7,6,6,0,7,0,0,0,0,0,0,0,0],"split_type":[0,0,0,0,0,0,0,0,0,0,0,0,0,0,0],"sum_hessian":[4.576655E2,2.7569183E2,1.8197366E2,9.923141E1,1.7646043E2,4.199188E1,1.399818E2,2.3245941E1,7.5985466E1,5.2986927E1,1.2347351E2,4.0242134E1,1.7497424E0,1.0898526E2,3.0996529E1],"tree_param":{"num_deleted":"0","num_feature":"8","num_nodes":"15","size_leaf_vector":"1"}},{"base_weights":[-1.770012E-2,3.583416E-1,-1.9539367E-1,5.2080405E-1,-0E0,-3.6505392E-1,-2.9600952E-2,-2.528436E-3,6.1074668E-3,7.0577804E-3,-1.3744893E-3,9.3389936E-5,-4.7837785E-3,-5.1250015E-3,5.825633E-4],"categories":[],"categories_nodes":[],"categories_segments":[],"categories_sizes":[],"default_left":[0,0,0,0,0,0,0,0,0,0,0,0,0,0,0],"id":10,"left_children":[1,3,5,7,9,11,13,-1,-1,-1,-1,-1,-1,-1,-1],"loss_changes":[3.143621E1,8.608732E0,8.831788E0,7.4214134E0,4.869148E0,6.906719E0,7.2203236E0,0E0,0E0,0E0,0E0,0E0,0E0,0E0,0E0],"parents":[2147483647,0,0,1,1,2,2,3,3,4,4,5,5,6,6],"right_children":[2,4,6,8,10,12,14,-1,-1,-1,-1,-1,-1,-1,-1],"split_conditions":[-3.7283543E-1,2.1184668E-1,2.8016865E-2,-1.1877894E0,-6.249031E-1,-4.918508E-1,-9.3380404E-1,-2.528436E-3,6.1074668E-3,7.0577804E-3,-1.3744893E-3,9.3389936E-5,-4.7837785E-3,-5.1250015E-3,5.825633E-4],"split_indices":[2,7,4,4,1,7,1,0,0,0,0,0,0,0,0],"split_type":[0,0,0,0,0,0,0,0,0,0,0,0,0,0,0],"sum_hessian":[4.7065515E2,1.4996707E2,3.2068808E2,1.024728E2,4.7494267E1,1.5670786E2,1.6398024E2,9.999215E0,9.247359E1,7.7486086E0,3.974566E1,3.5493423E1,1.21214424E2,2.5745718E1,1.3823451E2],"tree_param":{"num_deleted":"0","num_feature":"8","num_nodes":"15","size_leaf_vector":"1"}},{"base_weights":[-7.3149917E-3,3.8513893E-1,-2.0676495E-1,8.9418465E-1,2.1949354E-1,-1.4532433E-1,-8.158474E-1,1.0506312E-2,5.618843E-3,3.92736E-3,-1.2057076E-3,-3.6529212E-3,-0E0,-9.452504E-3,-0E0],"categories":[],"categories_nodes":[],"categories_segments":[],"categories_sizes":[],"default_left":[0,0,0,0,0,0,0,0,0,0,0,0,0,0,0],"id":11,"left_children":[1,3,5,7,9,11,13,-1,-1,-1,-1,-1,-1,-1,-1],"loss_changes":[3.7611446E1,1.2959078E1,1.1442051E1,9.1233253E-1,7.419051E0,9.404E0,2.695671E0,0E0,0E0,0E0,0E0,0E0,0E0,0E0,0E0],"parents":[2147483647,0,0,1,1,2,2,3,3,4,4,5,5,6,6],"right_children":[2,4,6,8,10,12,14,-1,-1,-1,-1,-1,-1,-1,-1],"split_conditions":[-3.7283543E-1,-1.3186002E0,1.7078471E0,1.0318752E-1,2.1184668E-1,-2.2913624E-1,1.0300089E0,1.0506312E-2,5.618843E-3,3.92736E-3,-1.2057076E-3,-3.6529212E-3,-0E0,-9.452504E-3,-0E0],"split_indices":[2,2,2,7,7,6,5,0,0,0,0,0,0,0,0],"split_type":[0,0,0,0,0,0,0,0,0,0,0,0,0,0,0],"sum_hessian":[4.8063522E2,1.609549E2,3.1968033E2,3.8235527E1,1.2271937E2,2.9169595E2,2.7984352E1,2.423854E1,1.3996985E1,8.2224014E1,4.0495354E1,1.1622007E2,1.7547589E2,2.3736258E1,4.2480936E0],"tree_param":{"num_deleted":"0","num_feature":"8","num_nodes":"15","size_leaf_vector":"1"}},{"base_weights":[-1.9579396E-2,2.748446E-1,-1.4824574E-1,3.5297418E-1,-1.07189745E-1,-2.1902509E-1,5.371934E-1,2.0884292E-3,5.262195E-3,-1.2354736E-2,4.4382026E-4,-6.744277E-3,-8.9851127E-4,-0E0,9.369006E-3],"categories":[],"categories_nodes":[],"categories_segments":[],"categories_sizes":[],"default_left":[0,0,0,0,0,0,0,0,0,0,0,0,0,0,0],"id":12,"left_children":[1,3,5,7,9,11,13,-1,-1,-1,-1,-1,-1,-1,-1],"loss_changes":[1.8201647E1,4.4834166E0,1.6232487E1,2.622939E0,4.7262287E0,1.7597816E1,6.1945457E0,0E0,0E0,0E0,0E0,0E0,0E0,0E0,0E0],"parents":[2147483647,0,0,1,1,2,2,3,3,4,4,5,5,6,6],"right_children":[2,4,6,8,10,12,14,-1,-1,-1,-1,-1,-1,-1,-1],"split_conditions":[-4.244131E-1,8.7096965E-1,1.2244501E0,-8.297396E-2,-9.7957796E-1,-3.6967376E-1,2.1015902E-1,2.0884292E-3,5.262195E-3,-1.2354736E-2,4.4382026E-4,-6.744277E-3,-8.9851127E-4,-0E0,9.369006E-3],"split_indices":[7,3,4,3,4,6,3,0,0,0,0,0,0,0,0],"split_type":[0,0,0,0,0,0,0,0,0,0,0,0,0,0,0],"sum_hessian":[4.811101E2,1.4495625E2,3.3615387E2,1.2146279E2,2.3493465E1,3.0566064E2,3.0493229E1,6.847987E1,5.298292E1,2.749525E0,2.074394E1,6.622018E1,2.3944046E2,1.3746971E1,1.6746258E1],"tree_param":{"num_deleted":"0","num_feature":"8","num_nodes":"15","size_leaf_vector":"1"}},{"base_weights":[-1.2696894E-2,-1.5540247E-1,1.7338225E-1,-7.368225E-2,-7.3432666E-1,-4.752824E-3,4.0615174E-1,-2.8219046E-3,4.5230897E-4,-9.406515E-3,-1.4365546E-3,8.585823E-4,-4.5321276E-3,5.2638245E-3,9.398086E-5],"categories":[],"categories_nodes":[],"categories_segments":[],"categories_sizes":[],"default_left":[0,0,0,0,0,0,0,0,0,0,0,0,0,0,0],"id":13,"left_children":[1,3,5,7,9,11,13,-1,-1,-1,-1,-1,-1,-1,-1],"loss_changes":[1.2361681E1,1.2113382E1,8.523434E0,5.9185286E0,3.2884789E0,4.7936425E0,3.9383087E0,0E0,0E0,0E0,0E0,0E0,0E0,0E0,0E0],"parents":[2147483647,0,0,1,1,2,2,3,3,4,4,5,5,6,6],"right_children":[2,4,6,8,10,12,14,-1,-1,-1,-1,-1,-1,-1,-1],"split_conditions":[1.6558516E-1,1.041469E0,1.9732244E-1,-2.5367454E-1,9.0269274E-1,5.7636195E-1,1.11555E0,-2.8219046E-3,4.5230897E-4,-9.406515E-3,-1.4365546E-3,8.585823E-4,-4.5321276E-3,5.2638245E-3,9.398086E-5],"split_indices":[4,7,6,6,6,7,4,0,0,0,0,0,0,0,0],"split_type":[0,0,0,0,0,0,0,0,0,0,0,0,0,0,0],"sum_hessian":[4.6485175E2,2.6465512E2,2.0019664E2,2.3316862E2,3.1486483E1,1.12468155E2,8.7728485E1,8.5960106E1,1.4720853E2,2.2488403E1,8.998079E0,9.297247E1,1.9495686E1,6.6233696E1,2.1494795E1],"tree_param":{"num_deleted":"0","num_feature":"8","num_nodes":"15","size_leaf_vector":"1"}},{"base_weights":[-3.287369E-2,4.0828982E-1,-1.8810488E-1,-1.6222468E-2,5.2231336E-1,-3.4225982E-1,1.9472279E-2,-3.192917E-3,2.5482837E-3,-3.6791363E-3,6.25069E-3,1.1845885E-2,-3.7614843E-3,-1.8763983E-3,3.614446E-3],"categories":[],"categories_nodes":[],"categories_segments":[],"categories_sizes":[],"default_left":[0,0,0,0,0,0,0,0,0,0,0,0,0,0,0],"id":14,"left_children":[1,3,5,7,9,11,13,-1,-1,-1,-1,-1,-1,-1,-1],"loss_changes":[3.265197E1,6.244568E0,1.1513121E1,2.187864E0,9.2491E0,1.0421747E1,1.0760867E1,0E0,0E0,0E0,0E0,0E0,0E0,0E0,0E0],"parents":[2147483647,0,0,1,1,2,2,3,3,4,4,5,5,6,6],"right_children":[2,4,6,8,10,12,14,-1,-1,-1,-1,-1,-1,-1,-1],"split_conditions":[-5.619884E-1,1.3195575E-2,2.1763803E-1,-9.402943E-1,-1.1721736E0,-1.992999E0,1.9732244E-1,-3.192917E-3,2.5482837E-3,-3.6791363E-3,6.25069E-3,1.1845885E-2,-3.7614843E-3,-1.8763983E-3,3.614446E-3],"split_indices":[2,5,4,2,4,3,6,0,0,0,0,0,0,0,0],"split_type":[0,0,0,0,0,0,0,0,0,0,0,0,0,0,0],"sum_hessian":[4.7734088E2,1.2319303E2,3.5414786E2,2.5245869E1,9.794716E1,2.0442108E2,1.4972679E2,1.2747844E1,1.2498024E1,9.498705E0,8.8448456E1,3.749634E0,2.0067145E2,9.248046E1,5.7246323E1],"tree_param":{"num_deleted":"0","num_feature":"8","num_nodes":"15","size_leaf_vector":"1"}},{"base_weights":[-3.803003E-2,2.3517613E-1,-2.8099525E-1,3.215554E-1,-5.0398475E-1,-4.3371886E-1,-0E0,4.662081E-3,1.3600854E-3,8.629154E-3,-6.6414247E-3,1.2720629E-3,-4.952247E-3,-4.1555185E-3,3.2654507E-3],"categories":[],"categories_nodes":[],"categories_segments":[],"categories_sizes":[],"default_left":[0,0,0,0,0,0,0,0,0,0,0,0,0,0,0],"id":15,"left_children":[1,3,5,7,9,11,13,-1,-1,-1,-1,-1,-1,-1,-1],"loss_changes":[3.102625E1,1.3967332E1,1.067643E1,4.9525642E0,5.111821E0,5.7670116E0,1.1967289E1,0E0,0E0,0E0,0E0,0E0,0E0,0E0,0E0],"parents":[2147483647,0,0,1,1,2,2,3,3,4,4,5,5,6,6],"right_children":[2,4,6,8,10,12,14,-1,-1,-1,-1,-1,-1,-1,-1],"split_conditions":[5.470497E-3,1.041469E0,2.7798855E-1,-5.619884E-1,-1.3186002E0,-1.3011029E0,-7.101171E-3,4.662081E-3,1.3600854E-3,8.629154E-3,-6.6414247E-3,1.2720629E-3,-4.952247E-3,-4.1555185E-3,3.2654507E-3],"split_indices":[2,7,6,2,2,7,1,0,0,0,0,0,0,0,0],"split_type":[0,0,0,0,0,0,0,0,0,0,0,0,0,0,0],"sum_hessian":[4.6606357E2,2.1841801E2,2.4764554E2,1.9642273E2,2.199528E1,1.6041254E2,8.723301E1,1.084353E2,8.7987434E1,1.7493347E0,2.0245945E1,1.4995166E1,1.4541737E2,3.824019E1,4.899282E1],"tree_param":{"num_deleted":"0","num_feature":"8","num_nodes":"15","size_leaf_vector":"1"}},{"base_weights":[2.0125069E-2,-1.8626569E-1,1.4721267E-1,-2.757641E-1,5.454128E-1,3.1324404E-1,-3.810244E-2,-1.13554E-3,-6.7380094E-3,1.7166177E-3,9.839888E-3,6.645354E-3,2.5794061E-3,-4.271932E-3,1.2641916E-3],"categories":[],"categories_nodes":[],"categories_segments":[],"categories_sizes":[],"default_left":[0,0,0,0,0,0,0,0,0,0,0,0,0,0,0],"id":16,"left_children":[1,3,5,7,9,11,13,-1,-1,-1,-1,-1,-1,-1,-1],"loss_changes":[1.2670462E1,1.1917263E1,9.401104E0,1.0150691E1,2.5329223E0,2.5648756E0,9.216564E0,0E0,0E0,0E0,0E0,0E0,0E0,0E0,0E0],"parents":[2147483647,0,0,1,1,2,2,3,3,4,4,5,5,6,6],"right_children":[2,4,6,8,10,12,14,-1,-1,-1,-1,-1,-1,-1,-1],"split_conditions":[-2.764601E-1,1.232669E0,2.6979825E-1,1.0318752E-1,-2.8074154E-1,-1.1325086E0,-4.019263E-1,-1.13554E-3,-6.7380094E-3,1.7166177E-3,9.839888E-3,6.645354E-3,2.5794061E-3,-4.271932E-3,1.2641916E-3],"split_indices":[6,4,7,7,7,7,4,0,0,0,0,0,0,0,0],"split_type":[0,0,0,0,0,0,0,0,0,0,0,0,0,0,0],"sum_hessian":[4.8277942E2,1.823977E2,3.003817E2,1.6340503E2,1.8992676E1,1.5967516E2,1.4070656E2,1.1744289E2,4.5962143E1,1.1245287E1,7.747389E0,1.9739468E1,1.399357E2,4.248086E1,9.822569E1],"tree_param":{"num_deleted":"0","num_feature":"8","num_nodes":"15","size_leaf_vector":"1"}},{"base_weights":[6.1053637E-2,4.2419326E-1,-1.2695976E-1,5.0074583E-1,-6.398724E-1,4.6770242E-1,-1.7829165E-1,6.2330714E-3,1.880099E-3,2.6504025E-3,-8.550177E-3,5.418622E-4,7.4516926E-3,-4.077029E-3,-3.689671E-4],"categories":[],"categories_nodes":[],"categories_segments":[],"categories_sizes":[],"default_left":[0,0,0,0,0,0,0,0,0,0,0,0,0,0,0],"id":17,"left_children":[1,3,5,7,9,11,13,-1,-1,-1,-1,-1,-1,-1,-1],"loss_changes":[3.267512E1,1.3400881E1,9.454622E0,5.406048E0,2.5007749E0,2.361826E0,9.156416E0,0E0,0E0,0E0,0E0,0E0,0E0,0E0,0E0],"parents":[2147483647,0,0,1,1,2,2,3,3,4,4,5,5,6,6],"right_children":[2,4,6,8,10,12,14,-1,-1,-1,-1,-1,-1,-1,-1],"split_conditions":[-3.7283543E-1,1.3064872E0,-1.518355E0,2.1184668E-1,-7.282713E-1,-1.8754449E0,-1.7464475E-1,6.2330714E-3,1.880099E-3,2.6504025E-3,-8.550177E-3,5.418622E-4,7.4516926E-3,-4.077029E-3,-3.689671E-4],"split_indices":[2,7,3,7,3,3,3,0,0,0,0,0,0,0,0],"split_type":[0,0,0,0,0,0,0,0,0,0,0,0,0,0,0],"sum_hessian":[4.755091E2,1.6290211E2,3.12607E2,1.5265424E2,1.0247876E1,2.3744062E1,2.888629E2,1.0816786E2,4.4486366E1,1.4997755E0,8.748101E0,1.0498112E1,1.3245951E1,1.0844101E2,1.8042192E2],"tree_param":{"num_deleted":"0","num_feature":"8","num_nodes":"15","size_leaf_vector":"1"}},{"base_weights":[2.63021E-2,5.6788826E-1,-1.5682246E-1,9.1933167E-1,4.0816778E-1,-3.0710804E-1,4.7413222E-2,2.4342816E-3,1.0062564E-2,-3.757321E-3,4.811895E-3,9.397545E-3,-3.3479664E-3,-2.119083E-3,2.6926931E-3],"categories":[],"categories_nodes":[],"categories_segments":[],"categories_sizes":[],"default_left":[0,0,0,0,0,0,0,0,0,0,0,0,0,0,0],"id":18,"left_children":[1,3,5,7,9,11,13,-1,-1,-1,-1,-1,-1,-1,-1],"loss_changes":[4.7779194E1,5.990841E0,1.1120504E1,1.4094944E0,5.047801E0,7.02281E0,8.728129E0,0E0,0E0,0E0,0E0,0E0,0E0,0E0,0E0],"parents":[2147483647,0,0,1,1,2,2,3,3,4,4,5,5,6,6],"right_children":[2,4,6,8,10,12,14,-1,-1,-1,-1,-1,-1,-1,-1],"split_conditions":[-5.619884E-1,-1.3186002E0,2.1763803E-1,1.3195575E-2,-1.2111119E0,-1.992999E0,-7.101171E-3,2.4342816E-3,1.0062564E-2,-3.757321E-3,4.811895E-3,9.397545E-3,-3.3479664E-3,-2.119083E-3,2.6926931E-3],"split_indices":[2,2,4,5,4,3,1,0,0,0,0,0,0,0,0],"split_type":[0,0,0,0,0,0,0,0,0,0,0,0,0,0,0],"sum_hessian":[4.787319E2,1.2139352E2,3.5733838E2,3.620996E1,8.5183556E1,2.0712386E2,1.5021454E2,4.998135E0,3.1211826E1,6.498722E0,7.868484E1,3.7495024E0,2.0337434E2,6.8230484E1,8.198405E1],"tree_param":{"num_deleted":"0","num_feature":"8","num_nodes":"15","size_leaf_vector":"1"}},{"base_weights":[-6.517481E-3,3.9973736E-1,-1.4989991E-1,6.7170876E-1,2.6153457E-1,4.3283692E-1,-1.946684E-1,8.50708E-4,7.6425034E-3,6.013315E-3,8.345758E-4,-5.9573E-3,5.995453E-3,-4.5426697E-3,-9.8226825E-5],"categories":[],"categories_nodes":[],"categories_segments":[],"categories_sizes":[],"default_left":[0,0,0,0,0,0,0,0,0,0,0,0,0,0,0],"id":19,"left_children":[1,3,5,7,9,11,13,-1,-1,-1,-1,-1,-1,-1,-1],"loss_changes":[2.7570974E1,4.0735226E0,9.114632E0,1.711546E0,4.695895E0,4.3805914E0,1.5520969E1,0E0,0E0,0E0,0E0,0E0,0E0,0E0,0E0],"parents":[2147483647,0,0,1,1,2,2,3,3,4,4,5,5,6,6],"right_children":[2,4,6,8,10,12,14,-1,-1,-1,-1,-1,-1,-1,-1],"split_conditions":[-5.619884E-1,-1.3186002E0,-1.518355E0,-6.7420596E-1,-3.751985E-1,-9.3380404E-1,-1.2450631E-1,8.50708E-4,7.6425034E-3,6.013315E-3,8.345758E-4,-5.9573E-3,5.995453E-3,-4.5426697E-3,-9.8226825E-5],"split_indices":[2,2,3,3,3,1,3,0,0,0,0,0,0,0,0],"split_type":[0,0,0,0,0,0,0,0,0,0,0,0,0,0,0],"sum_hessian":[4.744532E2,1.22626465E2,3.5182672E2,3.9448036E1,8.317843E1,2.3994564E1,3.2783215E2,6.241929E0,3.320611E1,2.7227737E1,5.595069E1,2.748809E0,2.1245754E1,1.3491827E2,1.9291388E2],"tree_param":{"num_deleted":"0","num_feature":"8","num_nodes":"15","size_leaf_vector":"1"}},{"base_weights":[1.3037512E-2,1.462628E-1,-1.8457636E-1,8.683479E-1,1.1890269E-1,-2.2095059E-1,7.2754353E-1,1.1872219E-2,4.375631E-3,-5.165848E-4,2.4407282E-3,1.0051517E-2,-2.403133E-3,1.0834815E-2,-2.7113374E-5],"categories":[],"categories_nodes":[],"categories_segments":[],"categories_sizes":[],"default_left":[0,0,0,0,0,0,0,0,0,0,0,0,0,0,0],"id":20,"left_children":[1,3,5,7,9,11,13,-1,-1,-1,-1,-1,-1,-1,-1],"loss_changes":[1.2280801E1,4.997299E0,6.0192947E0,2.3221397E-1,5.899881E0,4.020974E0,2.2955167E0,0E0,0E0,0E0,0E0,0E0,0E0,0E0,0E0],"parents":[2147483647,0,0,1,1,2,2,3,3,4,4,5,5,6,6],"right_children":[2,4,6,8,10,12,14,-1,-1,-1,-1,-1,-1,-1,-1],"split_conditions":[2.6979825E-1,-1.939518E0,2.1552055E0,-1.0630876E0,-1.2450631E-1,-2.3423185E0,1.9963505E0,1.1872219E-2,4.375631E-3,-5.165848E-4,2.4407282E-3,1.0051517E-2,-2.403133E-3,1.0834815E-2,-2.7113374E-5],"split_indices":[7,3,1,7,3,3,0,0,0,0,0,0,0,0,0],"split_type":[0,0,0,0,0,0,0,0,0,0,0,0,0,0,0],"sum_hessian":[4.6618375E2,2.800456E2,1.8613814E2,8.99543E0,2.7105017E2,1.7989134E2,6.246792E0,3.997653E0,4.997777E0,1.1315725E2,1.5789291E2,1.9994903E0,1.7789186E2,4.497486E0,1.7493061E0],"tree_param":{"num_deleted":"0","num_feature":"8","num_nodes":"15","size_leaf_vector":"1"}},{"base_weights":[1.803719E-2,4.437236E-1,-1.3461801E-1,-6.5552294E-2,5.8204496E-1,4.718244E-1,-1.8399166E-1,1.4780688E-3,-5.0217165E-3,6.300465E-3,-4.4464957E-4,-5.8829156E-3,6.3666063E-3,-4.2135012E-3,-2.1245111E-4],"categories":[],"categories_nodes":[],"categories_segments":[],"categories_sizes":[],"default_left":[0,0,0,0,0,0,0,0,0,0,0,0,0,0,0],"id":21,"left_children":[1,3,5,7,9,11,13,-1,-1,-1,-1,-1,-1,-1,-1],"loss_changes":[3.0559122E1,9.037632E0,1.0186594E1,2.6586654E0,3.2726326E0,4.6226287E0,1.2090061E1,0E0,0E0,0E0,0E0,0E0,0E0,0E0,0E0],"parents":[2147483647,0,0,1,1,2,2,3,3,4,4,5,5,6,6],"right_children":[2,4,6,8,10,12,14,-1,-1,-1,-1,-1,-1,-1,-1],"split_conditions":[-5.619884E-1,1.3195575E-2,-1.518355E0,5.112491E-1,1.9963505E0,-1.242705E0,-1.5150394E-1,1.4780688E-3,-5.0217165E-3,6.300465E-3,-4.4464957E-4,-5.8829156E-3,6.3666063E-3,-4.2135012E-3,-2.1245111E-4],"split_indices":[2,5,3,3,0,1,3,0,0,0,0,0,0,0,0],"split_type":[0,0,0,0,0,0,0,0,0,0,0,0,0,0,0],"sum_hessian":[4.669236E2,1.2385895E2,3.4306467E2,2.5739336E1,9.811961E1,2.4743412E1,3.1832126E2,1.6743166E1,8.99617E0,9.187559E1,6.2440243E0,2.748583E0,2.199483E1,1.27907364E2,1.9041388E2],"tree_param":{"num_deleted":"0","num_feature":"8","num_nodes":"15","size_leaf_vector":"1"}},{"base_weights":[5.4967146E-2,4.499622E-1,-1.3276574E-1,-3.6857374E-2,5.127783E-1,-6.524647E-2,-6.242485E-1,-2.7186638E-3,5.2195536E-3,5.5559115E-3,-9.419395E-4,-2.5759125E-3,8.712918E-4,-7.643306E-3,4.568952E-4],"categories":[],"categories_nodes":[],"categories_segments":[],"categories_sizes":[],"default_left":[0,0,0,0,0,0,0,0,0,0,0,0,0,0,0],"id":22,"left_children":[1,3,5,7,9,11,13,-1,-1,-1,-1,-1,-1,-1,-1],"loss_changes":[3.4569504E1,4.844862E0,1.0048374E1,2.1441464E0,3.7416878E0,8.225353E0,3.84443E0,0E0,0E0,0E0,0E0,0E0,0E0,0E0,0E0],"parents":[2147483647,0,0,1,1,2,2,3,3,4,4,5,5,6,6],"right_children":[2,4,6,8,10,12,14,-1,-1,-1,-1,-1,-1,-1,-1],"split_conditions":[-3.7283543E-1,-1.112515E0,1.5186942E0,1.1916039E0,1.9963505E0,-7.101171E-3,7.892306E-1,-2.7186638E-3,5.2195536E-3,5.5559115E-3,-9.419395E-4,-2.5759125E-3,8.712918E-4,-7.643306E-3,4.568952E-4],"split_indices":[2,6,2,0,0,1,0,0,0,0,0,0,0,0,0],"split_type":[0,0,0,0,0,0,0,0,0,0,0,0,0,0,0],"sum_hessian":[4.6314648E2,1.4984131E2,3.1330518E2,1.62388E1,1.3360251E2,2.7685492E2,3.6450268E1,1.2241945E1,3.996856E0,1.2560875E2,7.993751E0,1.2367512E2,1.531798E2,3.0705685E1,5.7445827E0],"tree_param":{"num_deleted":"0","num_feature":"8","num_nodes":"15","size_leaf_vector":"1"}},{"base_weights":[-3.6015943E-2,3.1309184E-1,-1.9640674E-1,7.16796E-1,1.8073846E-1,-1.4048588E-1,-5.901227E-1,-8.4099144E-4,9.892679E-3,5.2577484E-4,5.6586093E-3,-3.8757168E-3,-3.4279737E-4,5.1858234E-3,-7.287287E-3],"categories":[],"categories_nodes":[],"categories_segments":[],"categories_sizes":[],"default_left":[0,0,0,0,0,0,0,0,0,0,0,0,0,0,0],"id":23,"left_children":[1,3,5,7,9,11,13,-1,-1,-1,-1,-1,-1,-1,-1],"loss_changes":[2.6449265E1,7.397891E0,6.755086E0,8.23156E0,5.258754E0,7.3034096E0,6.3160915E0,0E0,0E0,0E0,0E0,0E0,0E0,0E0,0E0],"parents":[2147483647,0,0,1,1,2,2,3,3,4,4,5,5,6,6],"right_children":[2,4,6,8,10,12,14,-1,-1,-1,-1,-1,-1,-1,-1],"split_conditions":[-3.7283543E-1,-3.1600213E-1,1.5186942E0,1.3195575E-2,1.2285026E0,-4.4493654E-1,-1.3836484E0,-8.4099144E-4,9.892679E-3,5.2577484E-4,5.6586093E-3,-3.8757168E-3,-3.4279737E-4,5.1858234E-3,-7.287287E-3],"split_indices":[2,1,2,5,1,3,3,0,0,0,0,0,0,0,0],"split_type":[0,0,0,0,0,0,0,0,0,0,0,0,0,0,0],"sum_hessian":[4.723545E2,1.4756659E2,3.2478793E2,3.495654E1,1.1261005E2,2.8610043E2,3.868748E1,8.495566E0,2.6460972E1,8.5893105E1,2.6716942E1,8.4193665E1,2.0190678E2,3.7459204E0,3.494156E1],"tree_param":{"num_deleted":"0","num_feature":"8","num_nodes":"15","size_leaf_vector":"1"}},{"base_weights":[-1.6013652E-2,3.3914304E-1,-1.8853751E-1,4.6925324E-1,5.496971E-2,-4.492424E-1,-8.325198E-2,-1.2731235E-4,5.5192984E-3,-7.964742E-3,1.844841E-3,-5.9954575E-3,1.4467731E-4,6.929585E-3,-1.3237976E-3],"categories":[],"categories_nodes":[],"categories_segments":[],"categories_sizes":[],"default_left":[0,0,0,0,0,0,0,0,0,0,0,0,0,0,0],"id":24,"left_children":[1,3,5,7,9,11,13,-1,-1,-1,-1,-1,-1,-1,-1],"loss_changes":[2.9157194E1,5.4575157E0,8.554048E0,4.460289E0,5.3325796E0,6.6502647E0,8.588322E0,0E0,0E0,0E0,0E0,0E0,0E0,0E0,0E0],"parents":[2147483647,0,0,1,1,2,2,3,3,4,4,5,5,6,6],"right_children":[2,4,6,8,10,12,14,-1,-1,-1,-1,-1,-1,-1,-1],"split_conditions":[-3.7283543E-1,2.1184668E-1,-5.171945E-1,-1.0065095E0,-5.171945E-1,7.418848E-1,-1.1539661E0,-1.2731235E-4,5.5192984E-3,-7.964742E-3,1.844841E-3,-5.9954575E-3,1.4467731E-4,6.929585E-3,-1.3237976E-3],"split_indices":[2,7,6,6,6,4,7,0,0,0,0,0,0,0,0],"split_type":[0,0,0,0,0,0,0,0,0,0,0,0,0,0,0],"sum_hessian":[4.760643E2,1.5454263E2,3.2152167E2,1.0457658E2,4.9966053E1,9.065701E1,2.3086467E2,1.4488348E1,9.0088234E1,5.747281E0,4.4218773E1,6.916893E1,2.1488083E1,1.2746233E1,2.1811842E2],"tree_param":{"num_deleted":"0","num_feature":"8","num_nodes":"15","size_leaf_vector":"1"}},{"base_weights":[-3.759372E-2,3.006765E-1,-2.0994173E-1,-1.3662384E-1,4.1909626E-1,-4.7581977E-1,-9.8789185E-2,1.9907829E-4,-1.5897118E-2,4.817665E-3,-5.5294554E-3,-5.507676E-3,3.7711086E-3,6.324852E-3,-1.458538E-3],"categories":[],"categories_nodes":[],"categories_segments":[],"categories_sizes":[],"default_left":[0,0,0,0,0,0,0,0,0,0,0,0,0,0,0],"id":25,"left_children":[1,3,5,7,9,11,13,-1,-1,-1,-1,-1,-1,-1,-1],"loss_changes":[2.7068705E1,8.24937E0,8.821531E0,8.243953E0,7.6390285E0,5.9211807E0,7.37016E0,0E0,0E0,0E0,0E0,0E0,0E0,0E0,0E0],"parents":[2147483647,0,0,1,1,2,2,3,3,4,4,5,5,6,6],"right_children":[2,4,6,8,10,12,14,-1,-1,-1,-1,-1,-1,-1,-1],"split_conditions":[-3.7283543E-1,-6.4123434E-1,-5.171945E-1,-7.216797E-1,1.3064872E0,1.6386814E0,-1.1539661E0,1.9907829E-4,-1.5897118E-2,4.817665E-3,-5.5294554E-3,-5.507676E-3,3.7711086E-3,6.324852E-3,-1.458538E-3],"split_indices":[2,4,6,4,7,4,7,0,0,0,0,0,0,0,0],"split_type":[0,0,0,0,0,0,0,0,0,0,0,0,0,0,0],"sum_hessian":[4.6403546E2,1.5552014E2,3.0851532E2,3.2224052E1,1.232961E2,8.914377E1,2.1937154E2,2.92249E1,2.9991527E0,1.1654846E2,6.7476377E0,8.264502E1,6.4987493E0,1.2246497E1,2.0712505E2],"tree_param":{"num_deleted":"0","num_feature":"8","num_nodes":"15","size_leaf_vector":"1"}},{"base_weights":[9.362723E-3,2.2666937E-1,-1.1219356E-1,8.2232304E-2,6.0240287E-1,-5.207551E-1,-1.3920673E-2,-2.247577E-3,1.9851676E-3,7.5016203E-3,-6.3320366E-4,-6.9046426E-3,7.3760335E-4,-3.083075E-3,7.5714744E-4],"categories":[],"categories_nodes":[],"categories_segments":[],"categories_sizes":[],"default_left":[0,0,0,0,0,0,0,0,0,0,0,0,0,0,0],"id":26,"left_children":[1,3,5,7,9,11,13,-1,-1,-1,-1,-1,-1,-1,-1],"loss_changes":[1.247165E1,8.861899E0,1.1771681E1,4.4492326E0,4.9097443E0,6.1005774E0,6.547545E0,0E0,0E0,0E0,0E0,0E0,0E0,0E0,0E0],"parents":[2147483647,0,0,1,1,2,2,3,3,4,4,5,5,6,6],"right_children":[2,4,6,8,10,12,14,-1,-1,-1,-1,-1,-1,-1,-1],"split_conditions":[-2.8074154E-1,2.3175699E-1,-5.471526E-1,-1.2106681E0,1.5376211E0,7.418848E-1,-5.9558797E-1,-2.247577E-3,1.9851676E-3,7.5016203E-3,-6.3320366E-4,-6.9046426E-3,7.3760335E-4,-3.083075E-3,7.5714744E-4],"split_indices":[7,6,6,6,6,4,4,0,0,0,0,0,0,0,0],"split_type":[0,0,0,0,0,0,0,0,0,0,0,0,0,0,0],"sum_hessian":[4.6899472E2,1.6955734E2,2.9943738E2,1.2387736E2,4.567998E1,5.6656235E1,2.4278113E2,3.272292E1,9.1154434E1,3.794551E1,7.7344723E0,4.4666233E1,1.1990003E1,5.7685337E1,1.850958E2],"tree_param":{"num_deleted":"0","num_feature":"8","num_nodes":"15","size_leaf_vector":"1"}},{"base_weights":[4.4863764E-3,1.4212178E-1,-1.993583E-1,4.215481E-2,2.9231375E-1,-8.9235383E-1,-1.10004045E-1,7.716726E-4,-7.451944E-3,-6.97031E-4,4.2175096E-3,5.388468E-4,-1.0983043E-2,-1.0093336E-2,-6.747587E-4],"categories":[],"categories_nodes":[],"categories_segments":[],"categories_sizes":[],"default_left":[0,0,0,0,0,0,0,0,0,0,0,0,0,0,0],"id":27,"left_children":[1,3,5,7,9,11,13,-1,-1,-1,-1,-1,-1,-1,-1],"loss_changes":[1.3129083E1,4.051718E0,1.1064073E1,4.4234757E0,5.362548E0,4.5882645E0,5.828185E0,0E0,0E0,0E0,0E0,0E0,0E0,0E0,0E0],"parents":[2147483647,0,0,1,1,2,2,3,3,4,4,5,5,6,6],"right_children":[2,4,6,8,10,12,14,-1,-1,-1,-1,-1,-1,-1,-1],"split_conditions":[2.6979825E-1,2.6568684E-1,-1.0036178E0,2.332539E-1,1.3195575E-2,-9.4371045E-1,-1.8304422E0,7.716726E-4,-7.451944E-3,-6.97031E-4,4.2175096E-3,5.388468E-4,-1.0983043E-2,-1.0093336E-2,-6.747587E-4],"split_indices":[7,4,5,4,5,3,4,0,0,0,0,0,0,0,0],"split_type":[0,0,0,0,0,0,0,0,0,0,0,0,0,0,0],"sum_hessian":[4.679709E2,2.8090726E2,1.8706361E2,1.7103601E2,1.0987125E2,2.0212736E1,1.6685088E2,1.6479387E2,6.2421417E0,2.7980833E1,8.189041E1,3.2450023E0,1.6967733E1,6.4897923E0,1.6036108E2],"tree_param":{"num_deleted":"0","num_feature":"8","num_nodes":"15","size_leaf_vector":"1"}},{"base_weights":[2.6572958E-2,2.657276E-1,-1.8656191E-1,4.3219286E-1,-3.0412165E-2,-1.3367979E-1,-7.9604346E-1,9.408055E-3,3.1280553E-3,-1.0678765E-2,-0E0,-7.589072E-4,-3.743856E-3,-0E0,-9.874454E-3],"categories":[],"categories_nodes":[],"categories_segments":[],"categories_sizes":[],"default_left":[0,0,0,0,0,0,0,0,0,0,0,0,0,0,0],"id":28,"left_children":[1,3,5,7,9,11,13,-1,-1,-1,-1,-1,-1,-1,-1],"loss_changes":[2.436227E1,1.1345849E1,7.5797157E0,8.07649E0,3.0590248E0,2.995345E0,3.147378E0,0E0,0E0,0E0,0E0,0E0,0E0,0E0,0E0],"parents":[2147483647,0,0,1,1,2,2,3,3,4,4,5,5,6,6],"right_children":[2,4,6,8,10,12,14,-1,-1,-1,-1,-1,-1,-1,-1],"split_conditions":[5.470497E-3,2.1184668E-1,1.8970001E0,-1.3186002E0,-1.5516059E0,8.8282055E-1,-4.607257E-1,9.408055E-3,3.1280553E-3,-1.0678765E-2,-0E0,-7.589072E-4,-3.743856E-3,-0E0,-9.874454E-3],"split_indices":[2,7,2,2,1,3,7,0,0,0,0,0,0,0,0],"split_type":[0,0,0,0,0,0,0,0,0,0,0,0,0,0,0],"sum_hessian":[4.7618927E2,2.2544461E2,2.5074464E2,1.4525371E2,8.01909E1,2.3204143E2,1.8703213E1,2.6163603E1,1.190901E2,2.247952E0,7.7942955E1,1.8932324E2,4.2718185E1,3.4951E0,1.5208113E1],"tree_param":{"num_deleted":"0","num_feature":"8","num_nodes":"15","size_leaf_vector":"1"}},{"base_weights":[1.0857014E-2,-1.8157083E-1,1.8978788E-1,-7.0500153E-1,-1.2238102E-1,1.4249692E-3,4.2638636E-1,-8.466548E-3,5.043703E-3,-4.9885275E-4,-6.5212524E-3,5.321543E-3,-5.402823E-4,8.640743E-3,2.741865E-3],"categories":[],"categories_nodes":[],"categories_segments":[],"categories_sizes":[],"default_left":[0,0,0,0,0,0,0,0,0,0,0,0,0,0,0],"id":29,"left_children":[1,3,5,7,9,11,13,-1,-1,-1,-1,-1,-1,-1,-1],"loss_changes":[1.6226782E1,6.5353303E0,1.0725684E1,4.147477E0,7.4756947E0,4.3250713E0,6.482126E0,0E0,0E0,0E0,0E0,0E0,0E0,0E0,0E0],"parents":[2147483647,0,0,1,1,2,2,3,3,4,4,5,5,6,6],"right_children":[2,4,6,8,10,12,14,-1,-1,-1,-1,-1,-1,-1,-1],"split_conditions":[5.708493E-3,-1.344983E0,1.5232274E-1,1.5997351E0,1.2278099E0,-1.3214476E0,-2.4285014E-1,-8.466548E-3,5.043703E-3,-4.9885275E-4,-6.5212524E-3,5.321543E-3,-5.402823E-4,8.640743E-3,2.741865E-3],"split_indices":[4,6,6,3,7,3,7,0,0,0,0,0,0,0,0],"split_type":[0,0,0,0,0,0,0,0,0,0,0,0,0,0,0],"sum_hessian":[4.7016052E2,2.2518634E2,2.4497418E2,2.1464796E1,2.0372154E2,1.3784671E2,1.0712747E2,1.9718567E1,1.7462293E0,1.8050966E2,2.3211893E1,1.3486738E1,1.2435998E2,2.6189465E1,8.0938E1],"tree_param":{"num_deleted":"0","num_feature":"8","num_nodes":"15","size_leaf_vector":"1"}},{"base_weights":[4.91311E-3,2.6886013E-1,-2.359249E-1,5.468241E-1,1.381562E-1,-1.0727763E0,-1.9263414E-1,7.834852E-3,2.202858E-3,-1.8842003E-3,2.716978E-3,-0E0,-1.2449992E-2,-3.8945659E-3,-4.8742277E-4],"categories":[],"categories_nodes":[],"categories_segments":[],"categories_sizes":[],"default_left":[0,0,0,0,0,0,0,0,0,0,0,0,0,0,0],"id":30,"left_children":[1,3,5,7,9,11,13,-1,-1,-1,-1,-1,-1,-1,-1],"loss_changes":[2.9553192E1,7.70965E0,8.030143E0,4.8077927E0,6.754969E0,2.1583357E0,6.320633E0,0E0,0E0,0E0,0E0,0E0,0E0,0E0,0E0],"parents":[2147483647,0,0,1,1,2,2,3,3,4,4,5,5,6,6],"right_children":[2,4,6,8,10,12,14,-1,-1,-1,-1,-1,-1,-1,-1],"split_conditions":[5.470497E-3,-9.402943E-1,-1.8304422E0,1.1980464E-1,-4.069964E-1,-1.4937416E0,-1.7464475E-1,7.834852E-3,2.202858E-3,-1.8842003E-3,2.716978E-3,-0E0,-1.2449992E-2,-3.8945659E-3,-4.8742277E-4],"split_indices":[2,2,4,3,4,3,3,0,0,0,0,0,0,0,0],"split_type":[0,0,0,0,0,0,0,0,0,0,0,0,0,0,0],"sum_hessian":[4.6364523E2,2.2217256E2,2.4147269E2,6.932468E1,1.5284789E2,1.0724173E1,2.307485E2,3.8900414E1,3.0424267E1,4.3215267E1,1.0963262E2,1.498081E0,9.226092E0,9.562277E1,1.3512573E2],"tree_param":{"num_deleted":"0","num_feature":"8","num_nodes":"15","size_leaf_vector":"1"}},{"base_weights":[-0E0,2.6972735E-1,-2.5472763E-1,-6.6582546E-2,4.0605783E-1,-3.9491466E-1,-6.758537E-2,-5.3073983E-3,1.3218846E-4,6.942604E-3,2.54795E-3,-1.138723E-2,-3.080062E-3,-2.1678992E-3,1.6679962E-3],"categories":[],"categories_nodes":[],"categories_segments":[],"categories_sizes":[],"default_left":[0,0,0,0,0,0,0,0,0,0,0,0,0,0,0],"id":31,"left_children":[1,3,5,7,9,11,13,-1,-1,-1,-1,-1,-1,-1,-1],"loss_changes":[3.2250053E1,1.0643715E1,6.083686E0,2.6765583E0,6.563341E0,7.9107437E0,3.7303653E0,0E0,0E0,0E0,0E0,0E0,0E0,0E0,0E0],"parents":[2147483647,0,0,1,1,2,2,3,3,4,4,5,5,6,6],"right_children":[2,4,6,8,10,12,14,-1,-1,-1,-1,-1,-1,-1,-1],"split_conditions":[5.470497E-3,-3.6000717E-1,1.6558516E-1,-9.5355153E-1,-9.402943E-1,-1.3018104E0,2.3175699E-1,-5.3073983E-3,1.3218846E-4,6.942604E-3,2.54795E-3,-1.138723E-2,-3.080062E-3,-2.1678992E-3,1.6679962E-3],"split_indices":[2,6,4,4,2,6,6,0,0,0,0,0,0,0,0],"split_type":[0,0,0,0,0,0,0,0,0,0,0,0,0,0,0],"sum_hessian":[4.6836478E2,2.2764876E2,2.40716E2,6.467992E1,1.6296884E2,1.3577843E2,1.0493758E2,9.99355E0,5.4686367E1,5.4337894E1,1.0863095E2,1.2969982E1,1.2280844E2,6.5446495E1,3.949108E1],"tree_param":{"num_deleted":"0","num_feature":"8","num_nodes":"15","size_leaf_vector":"1"}},{"base_weights":[-4.0537585E-2,3.530797E-1,-1.7704327E-1,5.199879E-1,1.1690081E-1,-3.8375717E-1,-1.4313305E-2,-4.39551E-3,5.6235767E-3,-2.3919535E-3,2.8283866E-3,1.9972217E-3,-5.4172715E-3,-3.4787012E-3,4.6389038E-4],"categories":[],"categories_nodes":[],"categories_segments":[],"categories_sizes":[],"default_left":[0,0,0,0,0,0,0,0,0,0,0,0,0,0,0],"id":32,"left_children":[1,3,5,7,9,11,13,-1,-1,-1,-1,-1,-1,-1,-1],"loss_changes":[2.5549755E1,4.4580364E0,1.1744257E1,3.0333958E0,3.1506238E0,1.4516596E1,4.220035E0,0E0,0E0,0E0,0E0,0E0,0E0,0E0,0E0],"parents":[2147483647,0,0,1,1,2,2,3,3,4,4,5,5,6,6],"right_children":[2,4,6,8,10,12,14,-1,-1,-1,-1,-1,-1,-1,-1],"split_conditions":[-5.619884E-1,1.8793744E-1,-1.5150394E-1,-1.242705E0,4.5366356E-1,-1.3528981E0,-9.3380404E-1,-4.39551E-3,5.6235767E-3,-2.3919535E-3,2.8283866E-3,1.9972217E-3,-5.4172715E-3,-3.4787012E-3,4.6389038E-4],"split_indices":[2,3,3,1,3,3,1,0,0,0,0,0,0,0,0],"split_type":[0,0,0,0,0,0,0,0,0,0,0,0,0,0,0],"sum_hessian":[4.7606882E2,1.214394E2,3.5462943E2,6.9561935E1,5.187746E1,1.5455208E2,2.0007733E2,2.2444506E0,6.731749E1,1.5462222E1,3.6415237E1,3.2225693E1,1.2232639E2,3.1709038E1,1.683683E2],"tree_param":{"num_deleted":"0","num_feature":"8","num_nodes":"15","size_leaf_vector":"1"}},{"base_weights":[2.8569631E-2,1.6057578E-1,-1.5328175E-1,1.9658262E-2,4.8618883E-1,-2.4947138E-1,2.1427733E-1,-1.3170163E-3,1.6078885E-3,6.7131077E-3,2.4606336E-3,-6.259815E-3,-1.0991351E-3,7.8022447E-3,4.0889496E-4],"categories":[],"categories_nodes":[],"categories_segments":[],"categories_sizes":[],"default_left":[0,0,0,0,0,0,0,0,0,0,0,0,0,0,0],"id":33,"left_children":[1,3,5,7,9,11,13,-1,-1,-1,-1,-1,-1,-1,-1],"loss_changes":[1.1106708E1,1.2109507E1,6.867213E0,4.0776067E0,3.0291214E0,7.7033367E0,3.4219184E0,0E0,0E0,0E0,0E0,0E0,0E0,0E0,0E0],"parents":[2147483647,0,0,1,1,2,2,3,3,4,4,5,5,6,6],"right_children":[2,4,6,8,10,12,14,-1,-1,-1,-1,-1,-1,-1,-1],"split_conditions":[1.7787509E-1,2.7798855E-1,7.601371E-1,3.9473055E-3,-2.8074154E-1,-1.5341806E-1,-4.0482578E-1,-1.3170163E-3,1.6078885E-3,6.7131077E-3,2.4606336E-3,-6.259815E-3,-1.0991351E-3,7.8022447E-3,4.0889496E-4],"split_indices":[7,6,4,4,7,6,3,0,0,0,0,0,0,0,0],"split_type":[0,0,0,0,0,0,0,0,0,0,0,0,0,0,0],"sum_hessian":[4.6150888E2,2.6902866E2,1.9248024E2,1.892092E2,7.981945E1,1.5376195E2,3.8718296E1,8.960264E1,9.960656E1,4.338907E1,3.643038E1,4.0140984E1,1.1362096E2,7.9934845E0,3.072481E1],"tree_param":{"num_deleted":"0","num_feature":"8","num_nodes":"15","size_leaf_vector":"1"}},{"base_weights":[3.1912312E-2,4.3607247E-1,-1.0966225E-1,6.5216476E-1,2.8548768E-2,-2.4538773E-1,9.825046E-2,2.0337118E-5,7.1649607E-3,1.6352122E-3,-7.0045292E-3,-2.9005127E-3,1.4168479E-3,-2.856938E-3,3.1490915E-3],"categories":[],"categories_nodes":[],"categories_segments":[],"categories_sizes":[],"default_left":[0,0,0,0,0,0,0,0,0,0,0,0,0,0,0],"id":34,"left_children":[1,3,5,7,9,11,13,-1,-1,-1,-1,-1,-1,-1,-1],"loss_changes":[2.7564762E1,1.0670696E1,1.0070393E1,3.0258026E0,4.1859164E0,3.823372E0,1.1593443E1,0E0,0E0,0E0,0E0,0E0,0E0,0E0,0E0],"parents":[2147483647,0,0,1,1,2,2,3,3,4,4,5,5,6,6],"right_children":[2,4,6,8,10,12,14,-1,-1,-1,-1,-1,-1,-1,-1],"split_conditions":[-5.619884E-1,1.6566654E-1,2.3175699E-1,-1.1721736E0,1.369429E0,1.2639008E0,-2.9545453E-1,2.0337118E-5,7.1649607E-3,1.6352122E-3,-7.0045292E-3,-2.9005127E-3,1.4168479E-3,-2.856938E-3,3.1490915E-3],"split_indices":[2,7,6,4,7,4,4,0,0,0,0,0,0,0,0],"split_type":[0,0,0,0,0,0,0,0,0,0,0,0,0,0,0],"sum_hessian":[4.7797296E2,1.2464218E2,3.5333078E2,8.045387E1,4.4188305E1,2.1517755E2,1.3815324E2,7.9904685E0,7.246341E1,3.8191063E1,5.997245E0,1.9418768E2,2.0989868E1,4.8946785E1,8.920646E1],"tree_param":{"num_deleted":"0","num_feature":"8","num_nodes":"15","size_leaf_vector":"1"}},{"base_weights":[1.5663497E-2,-1.20924264E-1,2.0174935E-1,-6.608875E-1,-6.0627367E-2,2.344622E-2,4.3736556E-1,-9.072964E-3,-5.9373805E-4,3.2126298E-3,-1.3199111E-3,-3.4742572E-3,1.0072872E-3,-2.9758732E-3,5.140145E-3],"categories":[],"categories_nodes":[],"categories_segments":[],"categories_sizes":[],"default_left":[0,0,0,0,0,0,0,0,0,0,0,0,0,0,0],"id":35,"left_children":[1,3,5,7,9,11,13,-1,-1,-1,-1,-1,-1,-1,-1],"loss_changes":[1.19843645E1,8.393243E0,8.185614E0,3.3711233E0,6.5709195E0,3.2143207E0,4.9792995E0,0E0,0E0,0E0,0E0,0E0,0E0,0E0,0E0],"parents":[2147483647,0,0,1,1,2,2,3,3,4,4,5,5,6,6],"right_children":[2,4,6,8,10,12,14,-1,-1,-1,-1,-1,-1,-1,-1],"split_conditions":[1.6558516E-1,-1.3018104E0,1.9732244E-1,-1.7275849E-1,-9.82069E-1,-9.3380404E-1,-1.0953689E0,-9.072964E-3,-5.9373805E-4,3.2126298E-3,-1.3199111E-3,-3.4742572E-3,1.0072872E-3,-2.9758732E-3,5.140145E-3],"split_indices":[4,6,6,4,3,1,3,0,0,0,0,0,0,0,0],"split_type":[0,0,0,0,0,0,0,0,0,0,0,0,0,0,0],"sum_hessian":[4.6893896E2,2.689885E2,1.9995047E2,2.568699E1,2.433015E2,1.1533914E2,8.461133E1,1.7452282E1,8.234709E0,3.6928417E1,2.0637308E2,1.8472708E1,9.686644E1,7.238643E0,7.737269E1],"tree_param":{"num_deleted":"0","num_feature":"8","num_nodes":"15","size_leaf_vector":"1"}},{"base_weights":[2.440047E-2,2.953406E-1,-1.0534792E-1,-1.6650932E-1,3.8717994E-1,-2.8812006E-1,9.088389E-2,-9.430861E-3,1.5369925E-3,7.7868025E-3,2.4426563E-3,-1.989868E-3,-5.949892E-3,1.9433437E-3,-5.297121E-3],"categories":[],"categories_nodes":[],"categories_segments":[],"categories_sizes":[],"default_left":[0,0,0,0,0,0,0,0,0,0,0,0,0,0,0],"id":36,"left_children":[1,3,5,7,9,11,13,-1,-1,-1,-1,-1,-1,-1,-1],"loss_changes":[1.6498655E1,6.6039944E0,1.138592E1,6.612726E0,6.561899E0,4.034872E0,9.555766E0,0E0,0E0,0E0,0E0,0E0,0E0,0E0,0E0],"parents":[2147483647,0,0,1,1,2,2,3,3,4,4,5,5,6,6],"right_children":[2,4,6,8,10,12,14,-1,-1,-1,-1,-1,-1,-1,-1],"split_conditions":[-3.7283543E-1,-7.853376E-1,1.3955873E-1,-4.4493654E-1,-1.3186002E0,5.6558096E-1,1.3295412E0,-9.430861E-3,1.5369925E-3,7.7868025E-3,2.4426563E-3,-1.989868E-3,-5.949892E-3,1.9433437E-3,-5.297121E-3],"split_indices":[2,6,4,3,2,3,2,0,0,0,0,0,0,0,0],"split_type":[0,0,0,0,0,0,0,0,0,0,0,0,0,0,0],"sum_hessian":[4.6567972E2,1.5183464E2,3.138451E2,2.4214046E1,1.2762059E2,1.6369339E2,1.5015169E2,7.241258E0,1.6972788E1,3.259815E1,9.502244E1,1.2875018E2,3.4943214E1,1.2968321E2,2.0468487E1],"tree_param":{"num_deleted":"0","num_feature":"8","num_nodes":"15","size_leaf_vector":"1"}},{"base_weights":[-8.186848E-3,3.2070437E-1,-1.21152215E-1,-4.854688E-1,3.9048585E-1,-2.7690983E-1,3.7473764E-2,-1.4191402E-2,7.945384E-3,3.546586E-3,1.2429455E-2,-3.2201677E-3,2.3660786E-3,1.3182035E-3,-4.7452785E-3],"categories":[],"categories_nodes":[],"categories_segments":[],"categories_sizes":[],"default_left":[0,0,0,0,0,0,0,0,0,0,0,0,0,0,0],"id":37,"left_children":[1,3,5,7,9,11,13,-1,-1,-1,-1,-1,-1,-1,-1],"loss_changes":[1.7553257E1,6.817499E0,8.890301E0,1.1918015E1,2.3894176E0,4.265321E0,8.2949E0,0E0,0E0,0E0,0E0,0E0,0E0,0E0,0E0],"parents":[2147483647,0,0,1,1,2,2,3,3,4,4,5,5,6,6],"right_children":[2,4,6,8,10,12,14,-1,-1,-1,-1,-1,-1,-1,-1],"split_conditions":[-5.619884E-1,-1.370167E0,5.326055E-2,-7.863734E-3,2.7730074E0,1.5374036E0,1.3295412E0,-1.4191402E-2,7.945384E-3,3.546586E-3,1.2429455E-2,-3.2201677E-3,2.3660786E-3,1.3182035E-3,-4.7452785E-3],"split_indices":[2,6,4,4,1,1,2,0,0,0,0,0,0,0,0],"split_type":[0,0,0,0,0,0,0,0,0,0,0,0,0,0,0],"sum_hessian":[4.7411728E2,1.1984649E2,3.5427078E2,8.73929E0,1.111072E2,1.8015382E2,1.7411696E2,5.2477303E0,3.49156E0,1.07868256E2,3.238941E0,1.6667351E2,1.3480315E1,1.4816281E2,2.5954144E1],"tree_param":{"num_deleted":"0","num_feature":"8","num_nodes":"15","size_leaf_vector":"1"}},{"base_weights":[-8.966391E-3,2.0310754E-1,-1.9756357E-1,1.4251234E-3,3.168281E-1,-1.21561095E-1,-6.9166416E-1,1.0830817E-3,-3.8177674E-3,5.1897294E-3,1.9979128E-3,-3.1535514E-3,1.1082212E-4,-0E0,-8.831515E-3],"categories":[],"categories_nodes":[],"categories_segments":[],"categories_sizes":[],"default_left":[0,0,0,0,0,0,0,0,0,0,0,0,0,0,0],"id":38,"left_children":[1,3,5,7,9,11,13,-1,-1,-1,-1,-1,-1,-1,-1],"loss_changes":[1.8668688E1,4.852026E0,8.876693E0,3.196151E0,2.856721E0,5.724372E0,4.438369E0,0E0,0E0,0E0,0E0,0E0,0E0,0E0,0E0],"parents":[2147483647,0,0,1,1,2,2,3,3,4,4,5,5,6,6],"right_children":[2,4,6,8,10,12,14,-1,-1,-1,-1,-1,-1,-1,-1],"split_conditions":[5.470497E-3,-1.260754E-1,1.7078471E0,8.3333325E-1,-9.402943E-1,-1.5150394E-1,-9.0165216E-1,1.0830817E-3,-3.8177674E-3,5.1897294E-3,1.9979128E-3,-3.1535514E-3,1.1082212E-4,-0E0,-8.831515E-3],"split_indices":[2,6,2,3,2,3,3,0,0,0,0,0,0,0,0],"split_type":[0,0,0,0,0,0,0,0,0,0,0,0,0,0,0],"sum_hessian":[4.6582516E2,2.1799939E2,2.4782578E2,8.036888E1,1.3763051E2,2.1620422E2,3.162155E1,6.414185E1,1.6227034E1,4.82699E1,8.936061E1,8.910343E1,1.271008E2,6.728731E0,2.489282E1],"tree_param":{"num_deleted":"0","num_feature":"8","num_nodes":"15","size_leaf_vector":"1"}},{"base_weights":[-1.3578618E-2,3.4298182E-1,-1.942695E-1,3.7980407E-1,-2.3678608E-1,-4.973579E-1,-6.926241E-2,3.004852E-4,4.6258257E-3,4.01728E-3,-6.7392024E-3,8.469734E-3,-5.818629E-3,-3.250635E-3,1.2507654E-3],"categories":[],"categories_nodes":[],"categories_segments":[],"categories_sizes":[],"default_left":[0,0,0,0,0,0,0,0,0,0,0,0,0,0,0],"id":39,"left_children":[1,3,5,7,9,11,13,-1,-1,-1,-1,-1,-1,-1,-1],"loss_changes":[3.0514969E1,3.5057278E0,1.1672604E1,4.0977154E0,2.7773852E0,1.0455013E1,1.1329571E1,0E0,0E0,0E0,0E0,0E0,0E0,0E0,0E0],"parents":[2147483647,0,0,1,1,2,2,3,3,4,4,5,5,6,6],"right_children":[2,4,6,8,10,12,14,-1,-1,-1,-1,-1,-1,-1,-1],"split_conditions":[-3.7283543E-1,1.9963505E0,-5.171945E-1,-6.4123434E-1,-7.5575066E-1,-1.6250093E0,-1.7464475E-1,3.004852E-4,4.6258257E-3,4.01728E-3,-6.7392024E-3,8.469734E-3,-5.818629E-3,-3.250635E-3,1.2507654E-3],"split_indices":[2,0,6,4,4,0,3,0,0,0,0,0,0,0,0],"split_type":[0,0,0,0,0,0,0,0,0,0,0,0,0,0,0],"sum_hessian":[4.7377176E2,1.5825943E2,3.1551233E2,1.4978137E2,8.47806E0,9.0529106E1,2.2498323E2,2.9951612E1,1.19829765E2,2.9970322E0,5.481027E0,4.7373734E0,8.579173E1,9.8097565E1,1.26885666E2],"tree_param":{"num_deleted":"0","num_feature":"8","num_nodes":"15","size_leaf_vector":"1"}},{"base_weights":[2.3237662E-2,1.4579017E-1,-1.5230764E-1,5.2363347E-2,3.4514102E-1,-4.555109E-1,-7.933418E-2,1.0840159E-3,-3.048709E-3,3.8768558E-3,-6.7152902E-3,-8.33913E-3,-9.138893E-5,2.9103438E-4,-3.392058E-3],"categories":[],"categories_nodes":[],"categories_segments":[],"categories_sizes":[],"default_left":[0,0,0,0,0,0,0,0,0,0,0,0,0,0,0],"id":40,"left_children":[1,3,5,7,9,11,13,-1,-1,-1,-1,-1,-1,-1,-1],"loss_changes":[1.021549E1,5.0321727E0,3.9987583E0,3.7991953E0,3.7937727E0,5.6768785E0,4.612519E0,0E0,0E0,0E0,0E0,0E0,0E0,0E0,0E0],"parents":[2147483647,0,0,1,1,2,2,3,3,4,4,5,5,6,6],"right_children":[2,4,6,8,10,12,14,-1,-1,-1,-1,-1,-1,-1,-1],"split_conditions":[2.1184668E-1,2.7798855E-1,-3.966736E-1,1.0762117E0,1.9963505E0,6.4845896E-1,1.0644032E0,1.0840159E-3,-3.048709E-3,3.8768558E-3,-6.7152902E-3,-8.33913E-3,-9.138893E-5,2.9103438E-4,-3.392058E-3],"split_indices":[7,6,6,3,0,7,7,0,0,0,0,0,0,0,0],"split_type":[0,0,0,0,0,0,0,0,0,0,0,0,0,0,0],"sum_hessian":[4.7397595E2,2.808445E2,1.9313147E2,1.9336325E2,8.748125E1,3.5627415E1,1.5750406E2,1.6865482E2,2.4708448E1,8.473642E1,2.744826E0,1.8440573E1,1.718684E1,1.1008743E2,4.7416622E1],"tree_param":{"num_deleted":"0","num_feature":"8","num_nodes":"15","size_leaf_vector":"1"}},{"base_weights":[4.570296E-3,1.3840944E-1,-1.8692967E-1,2.2815308E-2,4.383937E-1,-4.9739525E-1,-6.915146E-2,5.412179E-3,-1.4254778E-5,-3.36935E-3,4.819683E-3,-9.577249E-3,-3.0514398E-3,-2.7644977E-3,8.050465E-4],"categories":[],"categories_nodes":[],"categories_segments":[],"categories_sizes":[],"default_left":[0,0,0,0,0,0,0,0,0,0,0,0,0,0,0],"id":41,"left_children":[1,3,5,7,9,11,13,-1,-1,-1,-1,-1,-1,-1,-1],"loss_changes":[1.2040666E1,9.425491E0,6.7245755E0,2.819299E0,2.7302818E0,3.7880592E0,4.48433E0,0E0,0E0,0E0,0E0,0E0,0E0,0E0,0E0],"parents":[2147483647,0,0,1,1,2,2,3,3,4,4,5,5,6,6],"right_children":[2,4,6,8,10,12,14,-1,-1,-1,-1,-1,-1,-1,-1],"split_conditions":[2.1184668E-1,3.8432118E-1,-5.8444935E-1,-1.8406043E0,-1.5501035E0,-4.178894E-1,1.3195575E-2,5.412179E-3,-1.4254778E-5,-3.36935E-3,4.819683E-3,-9.577249E-3,-3.0514398E-3,-2.7644977E-3,8.050465E-4],"split_indices":[7,6,4,7,7,0,5,0,0,0,0,0,0,0,0],"split_type":[0,0,0,0,0,0,0,0,0,0,0,0,0,0,0],"sum_hessian":[4.697263E2,2.7810712E2,1.916192E2,2.0234247E2,7.576464E1,5.1089493E1,1.4052971E2,9.48404E0,1.9285843E2,3.2418134E0,7.252283E1,1.3698352E1,3.739114E1,6.014138E1,8.038832E1],"tree_param":{"num_deleted":"0","num_feature":"8","num_nodes":"15","size_leaf_vector":"1"}},{"base_weights":[7.520045E-3,-1.5540212E-1,1.2977447E-1,3.6461234E-1,-2.3159581E-1,4.7202912E-1,7.3582E-3,-1.5157312E-3,4.4667763E-3,4.614029E-3,-2.6001513E-3,5.397756E-3,-7.7070156E-3,8.218023E-4,-3.3374613E-3],"categories":[],"categories_nodes":[],"categories_segments":[],"categories_sizes":[],"default_left":[0,0,0,0,0,0,0,0,0,0,0,0,0,0,0],"id":42,"left_children":[1,3,5,7,9,11,13,-1,-1,-1,-1,-1,-1,-1,-1],"loss_changes":[9.466293E0,7.990316E0,1.1222737E1,1.2491572E0,3.4564838E0,6.070202E0,5.0720444E0,0E0,0E0,0E0,0E0,0E0,0E0,0E0,0E0],"parents":[2147483647,0,0,1,1,2,2,3,3,4,4,5,5,6,6],"right_children":[2,4,6,8,10,12,14,-1,-1,-1,-1,-1,-1,-1,-1],"split_conditions":[-7.139005E-2,-1.5501035E0,-2.8074154E-1,-2.7847316E0,-1.6250093E0,1.5939772E0,1.2278099E0,-1.5157312E-3,4.4667763E-3,4.614029E-3,-2.6001513E-3,5.397756E-3,-7.7070156E-3,8.218023E-4,-3.3374613E-3],"split_indices":[6,7,7,7,0,0,7,0,0,0,0,0,0,0,0],"split_type":[0,0,0,0,0,0,0,0,0,0,0,0,0,0,0],"sum_hessian":[4.749014E2,2.0177751E2,2.731239E2,2.4706076E1,1.7707144E2,7.050151E1,2.0262239E2,2.495204E0,2.221087E1,5.982329E0,1.7108911E2,6.750661E1,2.9949033E0,1.6768555E2,3.493685E1],"tree_param":{"num_deleted":"0","num_feature":"8","num_nodes":"15","size_leaf_vector":"1"}},{"base_weights":[1.6680647E-2,3.2277557E-1,-1.3141064E-1,5.9604454E-3,4.0620703E-1,-7.2335035E-2,-5.7454574E-1,-4.2263106E-3,2.9658242E-3,-9.958148E-4,4.5528323E-3,-2.0499863E-3,1.2750502E-3,-6.888748E-3,1.2990556E-2],"categories":[],"categories_nodes":[],"categories_segments":[],"categories_sizes":[],"default_left":[0,0,0,0,0,0,0,0,0,0,0,0,0,0,0],"id":43,"left_children":[1,3,5,7,9,11,13,-1,-1,-1,-1,-1,-1,-1,-1],"loss_changes":[2.1419394E1,3.875826E0,7.927351E0,4.229254E0,3.2044353E0,7.484801E0,7.8752537E0,0E0,0E0,0E0,0E0,0E0,0E0,0E0,0E0],"parents":[2147483647,0,0,1,1,2,2,3,3,4,4,5,5,6,6],"right_children":[2,4,6,8,10,12,14,-1,-1,-1,-1,-1,-1,-1,-1],"split_conditions":[-3.7283543E-1,1.3195575E-2,1.5186942E0,-7.101171E-3,-1.3214476E0,2.3175699E-1,1.5997351E0,-4.2263106E-3,2.9658242E-3,-9.958148E-4,4.5528323E-3,-2.0499863E-3,1.2750502E-3,-6.888748E-3,1.2990556E-2],"split_indices":[2,5,2,1,3,6,3,0,0,0,0,0,0,0,0],"split_type":[0,0,0,0,0,0,0,0,0,0,0,0,0,0,0],"sum_hessian":[4.6944278E2,1.5397438E2,3.1546838E2,3.3456882E1,1.205175E2,2.798683E2,3.56001E1,1.2732382E1,2.07245E1,9.712792E0,1.1080471E2,1.6970134E2,1.1016696E2,3.410218E1,1.4979223E0],"tree_param":{"num_deleted":"0","num_feature":"8","num_nodes":"15","size_leaf_vector":"1"}},{"base_weights":[-3.565724E-2,3.1807375E-1,-1.559883E-1,3.790901E-1,-5.654277E-1,-3.3667153E-1,-1.01183215E-2,-9.703885E-3,4.0979995E-3,3.8526675E-3,-9.935484E-3,4.6944458E-4,-4.943704E-3,-3.565047E-3,4.8899266E-4],"categories":[],"categories_nodes":[],"categories_segments":[],"categories_sizes":[],"default_left":[0,0,0,0,0,0,0,0,0,0,0,0,0,0,0],"id":44,"left_children":[1,3,5,7,9,11,13,-1,-1,-1,-1,-1,-1,-1,-1],"loss_changes":[1.9752874E1,6.33412E0,9.013958E0,4.497656E0,3.4443333E0,9.563347E0,4.147962E0,0E0,0E0,0E0,0E0,0E0,0E0,0E0,0E0],"parents":[2147483647,0,0,1,1,2,2,3,3,4,4,5,5,6,6],"right_children":[2,4,6,8,10,12,14,-1,-1,-1,-1,-1,-1,-1,-1],"split_conditions":[-5.619884E-1,1.3064872E0,-7.101171E-3,-1.6250093E0,-1.3186002E0,-3.8149822E-1,-1.0711066E0,-9.703885E-3,4.0979995E-3,3.8526675E-3,-9.935484E-3,4.6944458E-4,-4.943704E-3,-3.565047E-3,4.8899266E-4],"split_indices":[2,7,1,0,2,7,6,0,0,0,0,0,0,0,0],"split_type":[0,0,0,0,0,0,0,0,0,0,0,0,0,0,0],"sum_hessian":[4.6488678E2,1.1673884E2,3.4814795E2,1.0999384E2,6.745E0,1.5369298E2,1.9445496E2,1.7447295E0,1.08249115E2,1.7472256E0,4.997774E0,4.3953327E1,1.09739655E2,2.9174652E1,1.652803E2],"tree_param":{"num_deleted":"0","num_feature":"8","num_nodes":"15","size_leaf_vector":"1"}},{"base_weights":[2.4172643E-2,-1.1920786E-1,2.2547978E-1,-1.6781731E-1,3.500739E-1,-1.1290595E-2,2.573988E-1,-5.664074E-4,-3.8603805E-3,1.4301062E-3,9.707801E-3,5.9969845E-4,4.3338994E-3],"categories":[],"categories_nodes":[],"categories_segments":[],"categories_sizes":[],"default_left":[0,0,0,0,0,0,0,0,0,0,0,0,0],"id":45,"left_children":[1,3,5,7,9,-1,11,-1,-1,-1,-1,-1,-1],"loss_changes":[1.355461E1,6.1383047E0,8.184045E0,5.774458E0,2.5492105E0,0E0,6.4206924E0,0E0,0E0,0E0,0E0,0E0,0E0],"parents":[2147483647,0,0,1,1,2,2,3,3,4,4,6,6],"right_children":[2,4,6,8,10,-1,12,-1,-1,-1,-1,-1,-1],"split_conditions":[2.3175699E-1,1.2639008E0,-1.8605069E0,2.1184668E-1,7.892306E-1,-1.1290595E-2,3.9473055E-3,-5.664074E-4,-3.8603805E-3,1.4301062E-3,9.707801E-3,5.9969845E-4,4.3338994E-3],"split_indices":[6,4,1,7,0,0,4,0,0,0,0,0,0],"split_type":[0,0,0,0,0,0,0,0,0,0,0,0,0],"sum_hessian":[4.668039E2,2.7129492E2,1.9550899E2,2.4708759E2,2.4207336E1,3.744714E0,1.9176427E2,1.6562692E2,8.1460655E1,1.9217312E1,4.9900265E0,9.203251E1,9.973176E1],"tree_param":{"num_deleted":"0","num_feature":"8","num_nodes":"13","size_leaf_vector":"1"}},{"base_weights":[-4.3805756E-2,-2.594515E-1,1.7346008E-2,1.0718361E0,-3.0796948E-1,1.1876179E0,1.4804205E-3,1.38987405E-2,6.989197E-4,-4.043157E-3,1.9175189E-3,1.508524E-2,-0E0,-1.936218E-3,8.538935E-4],"categories":[],"categories_nodes":[],"categories_segments":[],"categories_sizes":[],"default_left":[0,0,0,0,0,0,0,0,0,0,0,0,0,0,0],"id":46,"left_children":[1,3,5,7,9,11,13,-1,-1,-1,-1,-1,-1,-1,-1],"loss_changes":[6.3675776E0,6.6588063E0,6.2291536E0,3.3438635E-1,5.1261044E0,1.0500274E0,5.906086E0,0E0,0E0,0E0,0E0,0E0,0E0,0E0,0E0],"parents":[2147483647,0,0,1,1,2,2,3,3,4,4,5,5,6,6],"right_children":[2,4,6,8,10,12,14,-1,-1,-1,-1,-1,-1,-1,-1],"split_conditions":[-7.853376E-1,-2.0273826E0,-2.3423185E0,5.104354E-1,9.259289E-1,6.7495966E-1,-4.125735E-1,1.38987405E-2,6.989197E-4,-4.043157E-3,1.9175189E-3,1.508524E-2,-0E0,-1.936218E-3,8.538935E-4],"split_indices":[6,0,3,4,4,4,4,0,0,0,0,0,0,0,0],"split_type":[0,0,0,0,0,0,0,0,0,0,0,0,0,0,0],"sum_hessian":[4.7301318E2,1.0594908E2,3.6706412E2,2.9922888E0,1.02956795E2,3.9943192E0,3.630698E2,1.7455852E0,1.2467036E0,8.7234085E1,1.5722704E1,2.7469823E0,1.247337E0,1.07199814E2,2.5586998E2],"tree_param":{"num_deleted":"0","num_feature":"8","num_nodes":"15","size_leaf_vector":"1"}},{"base_weights":[5.0364067E-3,3.0843487E-1,-1.5304528E-1,-6.1866187E-2,4.126571E-1,3.7813002E-1,-1.954866E-1,9.814853E-3,-1.5450888E-3,-2.0905746E-4,5.383088E-3,-6.5172752E-3,6.3130143E-3,-4.49858E-3,-2.7985807E-4],"categories":[],"categories_nodes":[],"categories_segments":[],"categories_sizes":[],"default_left":[0,0,0,0,0,0,0,0,0,0,0,0,0,0,0],"id":47,"left_children":[1,3,5,7,9,11,13,-1,-1,-1,-1,-1,-1,-1,-1],"loss_changes":[2.2762886E1,6.482912E0,6.931723E0,3.0651605E0,7.259239E0,5.9908037E0,1.20326395E1,0E0,0E0,0E0,0E0,0E0,0E0,0E0,0E0],"parents":[2147483647,0,0,1,1,2,2,3,3,4,4,5,5,6,6],"right_children":[2,4,6,8,10,12,14,-1,-1,-1,-1,-1,-1,-1,-1],"split_conditions":[-3.7283543E-1,1.3195575E-2,-1.518355E0,-1.6262348E0,-6.4123434E-1,-9.3380404E-1,-1.5150394E-1,9.814853E-3,-1.5450888E-3,-2.0905746E-4,5.383088E-3,-6.5172752E-3,6.3130143E-3,-4.49858E-3,-2.7985807E-4],"split_indices":[2,5,3,4,4,1,3,0,0,0,0,0,0,0,0],"split_type":[0,0,0,0,0,0,0,0,0,0,0,0,0,0,0],"sum_hessian":[4.7199307E2,1.626035E2,3.093896E2,3.4704468E1,1.27899025E2,2.172716E1,2.876624E2,1.9988607E0,3.2705605E1,2.7937578E1,9.996145E1,3.7422528E0,1.7984907E1,1.126941E2,1.7496832E2],"tree_param":{"num_deleted":"0","num_feature":"8","num_nodes":"15","size_leaf_vector":"1"}},{"base_weights":[-5.0936103E-2,-2.1691121E-1,1.0271492E-1,-1.3817105E-1,-8.834196E-1,-7.0872955E-2,3.4034273E-1,-1.8798274E-3,3.3996396E-3,-1.4361722E-2,-6.54765E-3,3.637566E-3,-1.6412433E-3,8.83087E-3,1.0839109E-3],"categories":[],"categories_nodes":[],"categories_segments":[],"categories_sizes":[],"default_left":[0,0,0,0,0,0,0,0,0,0,0,0,0,0,0],"id":48,"left_children":[1,3,5,7,9,11,13,-1,-1,-1,-1,-1,-1,-1,-1],"loss_changes":[1.1983373E1,1.1306041E1,1.0104049E1,4.806899E0,1.4101734E0,5.551125E0,1.2448507E1,0E0,0E0,0E0,0E0,0E0,0E0,0E0,0E0],"parents":[2147483647,0,0,1,1,2,2,3,3,4,4,5,5,6,6],"right_children":[2,4,6,8,10,12,14,-1,-1,-1,-1,-1,-1,-1,-1],"split_conditions":[5.708493E-3,1.2278099E0,1.9732244E-1,1.5374036E0,-1.2445744E0,-1.370167E0,4.6826798E-1,-1.8798274E-3,3.3996396E-3,-1.4361722E-2,-6.54765E-3,3.637566E-3,-1.6412433E-3,8.83087E-3,1.0839109E-3],"split_indices":[4,7,6,1,4,6,6,0,0,0,0,0,0,0,0],"split_type":[0,0,0,0,0,0,0,0,0,0,0,0,0,0,0],"sum_hessian":[4.667191E2,2.2582709E2,2.40892E2,2.0317783E2,2.264925E1,1.3819029E2,1.02701706E2,1.8522989E2,1.7947939E1,5.215073E0,1.7434177E1,2.3208233E1,1.1498206E2,2.9684244E1,7.301746E1],"tree_param":{"num_deleted":"0","num_feature":"8","num_nodes":"15","size_leaf_vector":"1"}},{"base_weights":[-1.5603248E-3,-1.3577421E-1,1.959658E-1,2.2138786E-1,-2.1013483E-1,4.6030635E-1,-4.767854E-2,-4.370205E-3,3.507043E-3,2.1645804E-3,-2.537937E-3,-9.636141E-3,5.2703046E-3,-1.4572069E-3,3.7706892E-3],"categories":[],"categories_nodes":[],"categories_segments":[],"categories_sizes":[],"default_left":[0,0,0,0,0,0,0,0,0,0,0,0,0,0,0],"id":49,"left_children":[1,3,5,7,9,11,13,-1,-1,-1,-1,-1,-1,-1,-1],"loss_changes":[1.2579379E1,7.5791683E0,1.251384E1,4.1327977E0,4.4613266E0,8.833973E0,4.027005E0,0E0,0E0,0E0,0E0,0E0,0E0,0E0,0E0],"parents":[2147483647,0,0,1,1,2,2,3,3,4,4,5,5,6,6],"right_children":[2,4,6,8,10,12,14,-1,-1,-1,-1,-1,-1,-1,-1],"split_conditions":[2.3175699E-1,-1.0630876E0,2.6979825E-1,1.3195575E-2,-1.3214476E0,-1.5501035E0,1.1916039E0,-4.370205E-3,3.507043E-3,2.1645804E-3,-2.537937E-3,-9.636141E-3,5.2703046E-3,-1.4572069E-3,3.7706892E-3],"split_indices":[6,7,7,5,3,7,0,0,0,0,0,0,0,0,0],"split_type":[0,0,0,0,0,0,0,0,0,0,0,0,0,0,0],"sum_hessian":[4.746345E2,2.8420926E2,1.9042523E2,4.764631E1,2.3656296E2,9.210451E1,9.8320724E1,6.991781E0,4.0654526E1,2.0715857E1,2.158471E2,3.4865081E0,8.8618E1,8.110527E1,1.7215454E1],"tree_param":{"num_deleted":"0","num_feature":"8","num_nodes":"15","size_leaf_vector":"1"}},{"base_weights":[-2.502814E-3,2.477471E-1,-1.2815382E-1,-8.003468E-2,3.463847E-1,-5.4673478E-2,-5.0218743E-1,8.2535646E-4,-1.4116262E-2,-0E0,4.4218046E-3,4.9719717E-3,-1.1087353E-3,-5.8632544E-3,1.049103E-2],"categories":[],"categories_nodes":[],"categories_segments":[],"categories_sizes":[],"default_left":[0,0,0,0,0,0,0,0,0,0,0,0,0,0,0],"id":50,"left_children":[1,3,5,7,9,11,13,-1,-1,-1,-1,-1,-1,-1,-1],"loss_changes":[1.4887328E1,5.241419E0,8.441833E0,8.446984E0,4.2670097E0,8.124214E0,6.732895E0,0E0,0E0,0E0,0E0,0E0,0E0,0E0,0E0],"parents":[2147483647,0,0,1,1,2,2,3,3,4,4,5,5,6,6],"right_children":[2,4,6,8,10,12,14,-1,-1,-1,-1,-1,-1,-1,-1],"split_conditions":[-3.7283543E-1,-6.4123434E-1,1.3295412E0,-7.216797E-1,1.3195575E-2,-1.3836484E0,1.5569547E0,8.2535646E-4,-1.4116262E-2,-0E0,4.4218046E-3,4.9719717E-3,-1.1087353E-3,-5.8632544E-3,1.049103E-2],"split_indices":[2,4,2,4,5,3,3,0,0,0,0,0,0,0,0],"split_type":[0,0,0,0,0,0,0,0,0,0,0,0,0,0,0],"sum_hessian":[4.743498E2,1.570666E2,3.172832E2,3.518127E1,1.2188534E2,2.667826E2,5.0500603E1,3.1436762E1,3.744509E0,2.5460485E1,9.642485E1,2.3472103E1,2.4331049E2,4.8503242E1,1.997359E0],"tree_param":{"num_deleted":"0","num_feature":"8","num_nodes":"15","size_leaf_vector":"1"}},{"base_weights":[-4.6974053E-3,2.100726E-1,-9.2822485E-2,-3.4849655E-2,2.8815323E-1,-2.2497402E-1,7.8231566E-2,-1.2072013E-3,8.94043E-3,-1.9923078E-3,3.4174412E-3,-3.2212345E-3,2.4081045E-3,4.93718E-3,-6.90805E-5],"categories":[],"categories_nodes":[],"categories_segments":[],"categories_sizes":[],"default_left":[0,0,0,0,0,0,0,0,0,0,0,0,0,0,0],"id":51,"left_children":[1,3,5,7,9,11,13,-1,-1,-1,-1,-1,-1,-1,-1],"loss_changes":[8.867338E0,2.7241502E0,7.6781473E0,2.1933138E0,2.832036E0,8.738168E0,5.3807564E0,0E0,0E0,0E0,0E0,0E0,0E0,0E0,0E0],"parents":[2147483647,0,0,1,1,2,2,3,3,4,4,5,5,6,6],"right_children":[2,4,6,8,10,12,14,-1,-1,-1,-1,-1,-1,-1,-1],"split_conditions":[-4.607257E-1,-4.178894E-1,1.6037987E-1,1.5840259E0,-1.1877894E0,1.1916039E0,3.403341E-1,-1.2072013E-3,8.94043E-3,-1.9923078E-3,3.4174412E-3,-3.2212345E-3,2.4081045E-3,4.93718E-3,-6.90805E-5],"split_indices":[7,0,4,4,4,0,4,0,0,0,0,0,0,0,0],"split_type":[0,0,0,0,0,0,0,0,0,0,0,0,0,0,0],"sum_hessian":[4.705937E2,1.350637E2,3.3553E2,3.1168373E1,1.03895325E2,1.9085005E2,1.4467993E2,2.94218E1,1.7465717E0,9.233371E0,9.466196E1,1.5892952E2,3.1920528E1,2.5195862E1,1.1948407E2],"tree_param":{"num_deleted":"0","num_feature":"8","num_nodes":"15","size_leaf_vector":"1"}},{"base_weights":[-1.1244585E-2,-1.3878609E-1,1.5696016E-1,-5.345686E-2,-3.228848E-1,2.7296588E-1,-3.845114E-1,-1.9976553E-3,1.1193744E-3,-1.1398763E-2,-1.8976864E-3,6.9568222E-3,1.250801E-3,-8.759019E-3,-0E0],"categories":[],"categories_nodes":[],"categories_segments":[],"categories_sizes":[],"default_left":[0,0,0,0,0,0,0,0,0,0,0,0,0,0,0],"id":52,"left_children":[1,3,5,7,9,11,13,-1,-1,-1,-1,-1,-1,-1,-1],"loss_changes":[1.0006024E1,4.000325E0,1.2537503E1,4.5322633E0,8.216933E0,9.890682E0,6.3375106E0,0E0,0E0,0E0,0E0,0E0,0E0,0E0,0E0],"parents":[2147483647,0,0,1,1,2,2,3,3,4,4,5,5,6,6],"right_children":[2,4,6,8,10,12,14,-1,-1,-1,-1,-1,-1,-1,-1],"split_conditions":[1.9732244E-1,2.6979825E-1,1.1266534E0,1.3955873E-1,3.4269044E-1,4.6826798E-1,-2.2351004E-1,-1.9976553E-3,1.1193744E-3,-1.1398763E-2,-1.8976864E-3,6.9568222E-3,1.250801E-3,-8.759019E-3,-0E0],"split_indices":[6,7,7,4,7,6,4,0,0,0,0,0,0,0,0],"split_type":[0,0,0,0,0,0,0,0,0,0,0,0,0,0,0],"sum_hessian":[4.6583008E2,2.6667975E2,1.9915033E2,1.8451752E2,8.216223E1,1.6497679E2,3.417354E1,9.945674E1,8.5060776E1,1.0455385E1,7.170685E1,4.1401566E1,1.2357522E2,1.4442516E1,1.9731024E1],"tree_param":{"num_deleted":"0","num_feature":"8","num_nodes":"15","size_leaf_vector":"1"}},{"base_weights":[3.8784808E-3,4.6177712E-1,-1.5611075E-1,8.13904E-2,5.551778E-1,-8.473474E-2,-5.616886E-1,-7.4341563E-3,1.9639959E-3,5.9353444E-3,-4.8812905E-7,-2.0886688E-3,9.084696E-4,5.0953855E-5,-6.583132E-3],"categories":[],"categories_nodes":[],"categories_segments":[],"categories_sizes":[],"default_left":[0,0,0,0,0,0,0,0,0,0,0,0,0,0,0],"id":53,"left_children":[1,3,5,7,9,11,13,-1,-1,-1,-1,-1,-1,-1,-1],"loss_changes":[3.48237E1,4.041559E0,9.782743E0,2.2618816E0,2.3815365E0,6.589533E0,3.1338406E0,0E0,0E0,0E0,0E0,0E0,0E0,0E0,0E0],"parents":[2147483647,0,0,1,1,2,2,3,3,4,4,5,5,6,6],"right_children":[2,4,6,8,10,12,14,-1,-1,-1,-1,-1,-1,-1,-1],"split_conditions":[-5.619884E-1,1.3195575E-2,1.3295412E0,-1.5542043E0,1.9963505E0,2.3175699E-1,-1.222636E0,-7.4341563E-3,1.9639959E-3,5.9353444E-3,-4.8812905E-7,-2.0886688E-3,9.084696E-4,5.0953855E-5,-6.583132E-3],"split_indices":[2,5,2,6,0,6,0,0,0,0,0,0,0,0,0],"split_type":[0,0,0,0,0,0,0,0,0,0,0,0,0,0,0],"sum_hessian":[4.722732E2,1.22850334E2,3.4942285E2,2.5458036E1,9.7392296E1,2.9869415E2,5.072871E1,2.2490644E0,2.3208973E1,9.190898E1,5.48331E0,1.7659706E2,1.22097084E2,6.703872E0,4.4024837E1],"tree_param":{"num_deleted":"0","num_feature":"8","num_nodes":"15","size_leaf_vector":"1"}},{"base_weights":[7.3122897E-4,4.2002377E-1,-1.412847E-1,4.8871595E-1,-4.1191918E-1,3.3688787E-2,-2.5344533E-1,5.803728E-3,2.6070194E-3,6.7410716E-3,-7.4032876E-3,-2.9066955E-3,1.2607281E-3,-5.974299E-3,-1.3849508E-3],"categories":[],"categories_nodes":[],"categories_segments":[],"categories_sizes":[],"default_left":[0,0,0,0,0,0,0,0,0,0,0,0,0,0,0],"id":54,"left_children":[1,3,5,7,9,11,13,-1,-1,-1,-1,-1,-1,-1,-1],"loss_changes":[2.8539623E1,7.0860615E0,7.08862E0,1.8669453E0,3.4882312E0,4.0569057E0,8.2250185E0,0E0,0E0,0E0,0E0,0E0,0E0,0E0,0E0],"parents":[2147483647,0,0,1,1,2,2,3,3,4,4,5,5,6,6],"right_children":[2,4,6,8,10,12,14,-1,-1,-1,-1,-1,-1,-1,-1],"split_conditions":[-5.619884E-1,1.2278099E0,-1.4117488E-1,2.1184668E-1,-1.3186002E0,-1.112515E0,-3.966736E-1,5.803728E-3,2.6070194E-3,6.7410716E-3,-7.4032876E-3,-2.9066955E-3,1.2607281E-3,-5.974299E-3,-1.3849508E-3],"split_indices":[2,7,7,7,2,6,6,0,0,0,0,0,0,0,0],"split_type":[0,0,0,0,0,0,0,0,0,0,0,0,0,0,0],"sum_hessian":[4.759464E2,1.2106172E2,3.548847E2,1.1257395E2,8.487764E0,1.3702072E2,2.1786398E2,7.818122E1,3.4392735E1,1.4950234E0,6.992741E0,2.8937262E1,1.08083466E2,5.295366E1,1.6491032E2],"tree_param":{"num_deleted":"0","num_feature":"8","num_nodes":"15","size_leaf_vector":"1"}},{"base_weights":[4.373515E-2,4.409329E-1,-8.7877624E-2,5.788831E-1,2.2301254E-1,-4.09305E-2,-3.639556E-1,1.4761093E-3,6.7214128E-3,4.4955774E-3,2.7455096E-4,-2.9725963E-3,-0E0,-5.2449247E-3,4.830248E-3],"categories":[],"categories_nodes":[],"categories_segments":[],"categories_sizes":[],"default_left":[0,0,0,0,0,0,0,0,0,0,0,0,0,0,0],"id":55,"left_children":[1,3,5,7,9,11,13,-1,-1,-1,-1,-1,-1,-1,-1],"loss_changes":[2.4931107E1,3.1056328E0,4.38962E0,2.3971062E0,1.8936708E0,3.3413157E0,6.9411325E0,0E0,0E0,0E0,0E0,0E0,0E0,0E0,0E0],"parents":[2147483647,0,0,1,1,2,2,3,3,4,4,5,5,6,6],"right_children":[2,4,6,8,10,12,14,-1,-1,-1,-1,-1,-1,-1,-1],"split_conditions":[-5.619884E-1,-9.402943E-1,1.3295412E0,1.3195575E-2,-7.101171E-3,-1.0605515E0,1.0300089E0,1.4761093E-3,6.7214128E-3,4.4955774E-3,2.7455096E-4,-2.9725963E-3,-0E0,-5.2449247E-3,4.830248E-3],"split_indices":[2,2,2,5,1,6,5,0,0,0,0,0,0,0,0],"split_type":[0,0,0,0,0,0,0,0,0,0,0,0,0,0,0],"sum_hessian":[4.7266293E2,1.1829156E2,3.5437137E2,7.052468E1,4.776688E1,3.0490707E2,4.9464306E1,1.3721682E1,5.6802998E1,2.0644667E1,2.7122213E1,4.3103706E1,2.6180338E2,4.223902E1,7.2252874E0],"tree_param":{"num_deleted":"0","num_feature":"8","num_nodes":"15","size_leaf_vector":"1"}},{"base_weights":[8.874516E-3,5.648948E-2,-7.1628016E-1,-7.8379855E-2,2.452038E-1,2.137097E-1,-9.630344E-1,1.4637217E-4,-4.9291127E-3,7.139157E-3,1.4883623E-3,8.320105E-3,-0E0,-1.1143082E-2,-0E0],"categories":[],"categories_nodes":[],"categories_segments":[],"categories_sizes":[],"default_left":[0,0,0,0,0,0,0,0,0,0,0,0,0,0,0],"id":56,"left_children":[1,3,5,7,9,11,13,-1,-1,-1,-1,-1,-1,-1,-1],"loss_changes":[1.602439E1,1.1419725E1,7.0263977E0,1.0205234E1,7.9689264E0,1.107779E0,3.2300167E0,0E0,0E0,0E0,0E0,0E0,0E0,0E0,0E0],"parents":[2147483647,0,0,1,1,2,2,3,3,4,4,5,5,6,6],"right_children":[2,4,6,8,10,12,14,-1,-1,-1,-1,-1,-1,-1,-1],"split_conditions":[1.7078471E0,1.6558516E-1,-9.0165216E-1,7.353354E-1,3.34757E-1,-1.5853581E0,1.0300089E0,1.4637217E-4,-4.9291127E-3,7.139157E-3,1.4883623E-3,8.320105E-3,-0E0,-1.1143082E-2,-0E0],"split_indices":[2,4,3,3,4,3,5,0,0,0,0,0,0,0,0],"split_type":[0,0,0,0,0,0,0,0,0,0,0,0,0,0,0],"sum_hessian":[4.7256393E2,4.4452612E2,2.8037828E1,2.5787338E2,1.8665274E2,5.4684567E0,2.256937E1,2.1002243E2,4.7850952E1,3.0400137E1,1.5625261E2,1.4940574E0,3.9743993E0,1.9332249E1,3.2371225E0],"tree_param":{"num_deleted":"0","num_feature":"8","num_nodes":"15","size_leaf_vector":"1"}},{"base_weights":[1.5341984E-3,2.5674194E-1,-1.6108766E-1,4.1857755E-1,-3.5160627E-2,-7.687384E-2,-5.4957193E-1,6.7685876E-4,5.5303383E-3,-8.464918E-3,6.359693E-4,-2.5292656E-3,9.6417434E-4,-1.4687517E-2,-4.503461E-3],"categories":[],"categories_nodes":[],"categories_segments":[],"categories_sizes":[],"default_left":[0,0,0,0,0,0,0,0,0,0,0,0,0,0,0],"id":57,"left_children":[1,3,5,7,9,11,13,-1,-1,-1,-1,-1,-1,-1,-1],"loss_changes":[1.9795177E1,9.003926E0,9.1345625E0,5.3818836E0,5.6935987E0,7.397371E0,3.3087597E0,0E0,0E0,0E0,0E0,0E0,0E0,0E0,0E0],"parents":[2147483647,0,0,1,1,2,2,3,3,4,4,5,5,6,6],"right_children":[2,4,6,8,10,12,14,-1,-1,-1,-1,-1,-1,-1,-1],"split_conditions":[-1.8368246E-1,2.1184668E-1,1.3295412E0,-4.779776E-1,-3.966736E-1,7.7095285E-2,-1.6262348E0,6.7685876E-4,5.5303383E-3,-8.464918E-3,6.359693E-4,-2.5292656E-3,9.6417434E-4,-1.4687517E-2,-4.503461E-3],"split_indices":[2,7,2,4,6,4,4,0,0,0,0,0,0,0,0],"split_type":[0,0,0,0,0,0,0,0,0,0,0,0,0,0,0],"sum_hessian":[4.748145E2,1.8588477E2,2.8892975E2,1.2054728E2,6.533749E1,2.3900528E2,4.9924465E1,3.4633728E1,8.591355E1,7.22864E0,5.810885E1,1.1987529E2,1.1912999E2,3.700916E0,4.622355E1],"tree_param":{"num_deleted":"0","num_feature":"8","num_nodes":"15","size_leaf_vector":"1"}},{"base_weights":[-1.4324787E-2,1.4014398E-1,-1.5463772E-1,-5.622261E-1,1.6316453E-1,-4.149439E-1,-4.136715E-2,1.1593981E-3,-8.7619675E-3,4.179672E-3,1.0891482E-3,-3.0086087E-3,-7.892303E-3,4.8727248E-4,-4.3611852E-3],"categories":[],"categories_nodes":[],"categories_segments":[],"categories_sizes":[],"default_left":[0,0,0,0,0,0,0,0,0,0,0,0,0,0,0],"id":58,"left_children":[1,3,5,7,9,11,13,-1,-1,-1,-1,-1,-1,-1,-1],"loss_changes":[1.0204869E1,3.4403954E0,7.0820184E0,1.8101115E0,2.703763E0,2.490365E0,6.4229026E0,0E0,0E0,0E0,0E0,0E0,0E0,0E0,0E0],"parents":[2147483647,0,0,1,1,2,2,3,3,4,4,5,5,6,6],"right_children":[2,4,6,8,10,12,14,-1,-1,-1,-1,-1,-1,-1,-1],"split_conditions":[5.470497E-3,-1.5516059E0,-4.8153016E-1,-9.402943E-1,-1.3186002E0,7.892306E-1,1.3295412E0,1.1593981E-3,-8.7619675E-3,4.179672E-3,1.0891482E-3,-3.0086087E-3,-7.892303E-3,4.8727248E-4,-4.3611852E-3],"split_indices":[2,1,6,2,2,0,2,0,0,0,0,0,0,0,0],"split_type":[0,0,0,0,0,0,0,0,0,0,0,0,0,0,0],"sum_hessian":[4.6950104E2,2.2178159E2,2.4771945E2,5.977374E0,2.1580421E2,7.336775E1,1.743517E2,1.4874321E0,4.489942E0,3.5675037E1,1.8012918E2,5.7944096E1,1.5423653E1,1.4127911E2,3.3072575E1],"tree_param":{"num_deleted":"0","num_feature":"8","num_nodes":"15","size_leaf_vector":"1"}},{"base_weights":[2.834058E-3,4.2906544E-1,-7.41724E-2,6.7944664E-1,-0E0,1.1163171E-1,-1.8333071E-1,-1.7477665E-3,7.252689E-3,3.913482E-3,-3.4762605E-3,2.5625713E-3,-2.2020284E-3,-1.4549874E-3,-7.766813E-3],"categories":[],"categories_nodes":[],"categories_segments":[],"categories_sizes":[],"default_left":[0,0,0,0,0,0,0,0,0,0,0,0,0,0,0],"id":59,"left_children":[1,3,5,7,9,11,13,-1,-1,-1,-1,-1,-1,-1,-1],"loss_changes":[1.6026571E1,7.7982273E0,8.321261E0,2.168703E0,3.978643E0,7.2261925E0,5.2940197E0,0E0,0E0,0E0,0E0,0E0,0E0,0E0,0E0],"parents":[2147483647,0,0,1,1,2,2,3,3,4,4,5,5,6,6],"right_children":[2,4,6,8,10,12,14,-1,-1,-1,-1,-1,-1,-1,-1],"split_conditions":[-9.402943E-1,1.4703244E-1,-2.2210008E-1,-1.8263645E0,3.8685727E-1,5.729294E-1,1.8970001E0,-1.7477665E-3,7.252689E-3,3.913482E-3,-3.4762605E-3,2.5625713E-3,-2.2020284E-3,-1.4549874E-3,-7.766813E-3],"split_indices":[2,7,7,3,0,2,2,0,0,0,0,0,0,0,0],"split_type":[0,0,0,0,0,0,0,0,0,0,0,0,0,0,0],"sum_hessian":[4.81888E2,7.438323E1,4.0750476E2,4.6254303E1,2.8128931E1,1.4910814E2,2.583966E2,1.7276893E0,4.4526615E1,1.3693632E1,1.4435299E1,1.04976326E2,4.4131805E1,2.4428622E2,1.4110386E1],"tree_param":{"num_deleted":"0","num_feature":"8","num_nodes":"15","size_leaf_vector":"1"}},{"base_weights":[4.0827982E-2,-1.1331571E-1,2.5794637E-1,-2.9138897E-2,-3.3277905E-1,2.3714867E-1,1.3794694E-2,-2.2010813E-3,2.3535497E-3,-4.0973197E-3,-0E0,3.5073733E-4,3.2972016E-3],"categories":[],"categories_nodes":[],"categories_segments":[],"categories_sizes":[],"default_left":[0,0,0,0,0,0,0,0,0,0,0,0,0],"id":60,"left_children":[1,3,5,7,9,11,-1,-1,-1,-1,-1,-1,-1],"loss_changes":[1.5562822E1,4.7915154E0,3.5412807E0,9.965239E0,1.8715525E0,3.3848896E0,0E0,0E0,0E0,0E0,0E0,0E0,0E0],"parents":[2147483647,0,0,1,1,2,2,3,3,4,4,5,5],"right_children":[2,4,6,8,10,12,-1,-1,-1,-1,-1,-1,-1],"split_conditions":[2.3175699E-1,5.8198994E-1,2.7730074E0,-1.2450631E-1,1.0300089E0,-4.0482578E-1,1.3794694E-2,-2.2010813E-3,2.3535497E-3,-4.0973197E-3,-0E0,3.5073733E-4,3.2972016E-3],"split_indices":[6,3,1,3,5,3,0,0,0,0,0,0,0],"split_type":[0,0,0,0,0,0,0,0,0,0,0,0,0],"sum_hessian":[4.6191647E2,2.689272E2,1.929893E2,1.9642975E2,7.249744E1,1.9050803E2,2.4812646E0,1.1521604E2,8.121371E1,5.880075E1,1.3696683E1,6.1767033E1,1.28741E2],"tree_param":{"num_deleted":"0","num_feature":"8","num_nodes":"13","size_leaf_vector":"1"}},{"base_weights":[2.4265146E-2,2.6440394E-1,-1.0015473E-1,4.1740903E-1,-3.9746046E-2,-2.82372E-1,5.5477906E-2,6.6695554E-4,5.1701223E-3,1.2063478E-2,-1.0305978E-3,-7.0583015E-3,-2.275135E-3,5.5708564E-3,1.5433395E-4],"categories":[],"categories_nodes":[],"categories_segments":[],"categories_sizes":[],"default_left":[0,0,0,0,0,0,0,0,0,0,0,0,0,0,0],"id":61,"left_children":[1,3,5,7,9,11,13,-1,-1,-1,-1,-1,-1,-1,-1],"loss_changes":[1.4081762E1,7.702155E0,8.837245E0,3.4787045E0,3.7186782E0,2.7782679E0,3.017756E0,0E0,0E0,0E0,0E0,0E0,0E0,0E0,0E0],"parents":[2147483647,0,0,1,1,2,2,3,3,4,4,5,5,6,6],"right_children":[2,4,6,8,10,12,14,-1,-1,-1,-1,-1,-1,-1,-1],"split_conditions":[-3.7283543E-1,2.1184668E-1,-1.659988E-2,-6.6225564E-1,-2.453518E0,-1.7343446E0,-1.5501035E0,6.6695554E-4,5.1701223E-3,1.2063478E-2,-1.0305978E-3,-7.0583015E-3,-2.275135E-3,5.5708564E-3,1.5433395E-4],"split_indices":[2,7,4,4,2,4,7,0,0,0,0,0,0,0,0],"split_type":[0,0,0,0,0,0,0,0,0,0,0,0,0,0,0],"sum_hessian":[4.6761627E2,1.6077184E2,3.0684442E2,1.07933E2,5.2838825E1,1.4264215E2,1.6420227E2,2.516811E1,8.276489E1,1.7365918E0,5.1102234E1,1.463392E1,1.2800824E2,1.073914E1,1.5346313E2],"tree_param":{"num_deleted":"0","num_feature":"8","num_nodes":"15","size_leaf_vector":"1"}},{"base_weights":[1.1708903E-2,2.590376E-1,-1.1046849E-1,4.339247E-1,-7.453806E-2,-2.6127845E-1,-2.1518331E-3,3.1490524E-3,8.2498565E-3,-8.61005E-3,1.6068287E-4,1.6508924E-3,-3.90845E-3,3.768151E-3,-1.2011286E-3],"categories":[],"categories_nodes":[],"categories_segments":[],"categories_sizes":[],"default_left":[0,0,0,0,0,0,0,0,0,0,0,0,0,0,0],"id":62,"left_children":[1,3,5,7,9,11,13,-1,-1,-1,-1,-1,-1,-1,-1],"loss_changes":[1.4007703E1,9.16873E0,4.888073E0,4.045864E0,4.159506E0,7.134824E0,7.9985123E0,0E0,0E0,0E0,0E0,0E0,0E0,0E0,0E0],"parents":[2147483647,0,0,1,1,2,2,3,3,4,4,5,5,6,6],"right_children":[2,4,6,8,10,12,14,-1,-1,-1,-1,-1,-1,-1,-1],"split_conditions":[-3.7283543E-1,2.1184668E-1,-1.7464475E-1,6.0123974E-1,-7.0027155E-1,-1.3528981E0,1.05467536E-1,3.1490524E-3,8.2498565E-3,-8.61005E-3,1.6068287E-4,1.6508924E-3,-3.90845E-3,3.768151E-3,-1.2011286E-3],"split_indices":[2,7,3,6,6,3,3,0,0,0,0,0,0,0,0],"split_type":[0,0,0,0,0,0,0,0,0,0,0,0,0,0,0],"sum_hessian":[4.601235E2,1.5330804E2,3.0681546E2,1.0146202E2,5.184602E1,1.260262E2,1.8078925E2,7.945967E1,2.2002356E1,5.4868608E0,4.635916E1,2.8440443E1,9.758576E1,4.164921E1,1.3914003E2],"tree_param":{"num_deleted":"0","num_feature":"8","num_nodes":"15","size_leaf_vector":"1"}},{"base_weights":[1.5905349E-3,-1.0825072E-1,1.7373005E-1,-1.4474508E-1,6.9208837E-1,-0E0,3.5074276E-1,-3.9999397E-3,-4.685118E-4,-0E0,8.170607E-3,-4.185797E-3,3.805669E-4,9.150112E-5,4.83735E-3],"categories":[],"categories_nodes":[],"categories_segments":[],"categories_sizes":[],"default_left":[0,0,0,0,0,0,0,0,0,0,0,0,0,0,0],"id":63,"left_children":[1,3,5,7,9,11,13,-1,-1,-1,-1,-1,-1,-1,-1],"loss_changes":[8.946259E0,8.130266E0,5.8490987E0,6.6275115E0,1.4252591E0,1.6473784E0,3.9777632E0,0E0,0E0,0E0,0E0,0E0,0E0,0E0,0E0],"parents":[2147483647,0,0,1,1,2,2,3,3,4,4,5,5,6,6],"right_children":[2,4,6,8,10,12,14,-1,-1,-1,-1,-1,-1,-1,-1],"split_conditions":[2.7798855E-1,1.6386814E0,1.4631842E-2,-4.178894E-1,-1.5516059E0,-9.3380404E-1,-4.1442528E-1,-3.9999397E-3,-4.685118E-4,-0E0,8.170607E-3,-4.185797E-3,3.805669E-4,9.150112E-5,4.83735E-3],"split_indices":[6,4,4,0,1,1,3,0,0,0,0,0,0,0,0],"split_type":[0,0,0,0,0,0,0,0,0,0,0,0,0,0,0],"sum_hessian":[4.704174E2,2.8551367E2,1.8490373E2,2.740516E2,1.1462069E1,9.237062E1,9.2533104E1,7.412563E1,1.9992598E2,1.2444941E0,1.0217574E1,8.20248E0,8.4168144E1,2.7133728E1,6.5399376E1],"tree_param":{"num_deleted":"0","num_feature":"8","num_nodes":"15","size_leaf_vector":"1"}},{"base_weights":[-1.0243805E-2,3.4788895E-1,-1.4069518E-1,3.5534736E-2,4.3430611E-1,-5.6131378E-2,-6.256686E-1,-9.519793E-5,1.0221362E-2,-5.5570398E-3,4.60907E-3,-3.3721447E-3,4.9519417E-4,-6.935922E-3,2.3834552E-3],"categories":[],"categories_nodes":[],"categories_segments":[],"categories_sizes":[],"default_left":[0,0,0,0,0,0,0,0,0,0,0,0,0,0,0],"id":64,"left_children":[1,3,5,7,9,11,13,-1,-1,-1,-1,-1,-1,-1,-1],"loss_changes":[2.17364E1,3.0989723E0,1.3735298E1,1.7836307E0,2.600153E0,8.884737E0,3.2503948E0,0E0,0E0,0E0,0E0,0E0,0E0,0E0,0E0],"parents":[2147483647,0,0,1,1,2,2,3,3,4,4,5,5,6,6],"right_children":[2,4,6,8,10,12,14,-1,-1,-1,-1,-1,-1,-1,-1],"split_conditions":[-5.619884E-1,-5.171945E-1,1.3295412E0,1.8463045E0,-1.6250093E0,-5.327977E-1,9.6602315E-1,-9.519793E-5,1.0221362E-2,-5.5570398E-3,4.60907E-3,-3.3721447E-3,4.9519417E-4,-6.935922E-3,2.3834552E-3],"split_indices":[2,6,2,1,0,6,6,0,0,0,0,0,0,0,0],"split_type":[0,0,0,0,0,0,0,0,0,0,0,0,0,0,0],"sum_hessian":[4.6645273E2,1.2329645E2,3.4315628E2,2.8126156E1,9.517029E1,2.9355804E2,4.9598255E1,2.688672E1,1.2394344E0,1.7381883E0,9.3432106E1,8.118983E1,2.1236821E2,4.6611275E1,2.986981E0],"tree_param":{"num_deleted":"0","num_feature":"8","num_nodes":"15","size_leaf_vector":"1"}},{"base_weights":[5.204067E-3,3.6781928E-1,-1.1679056E-1,5.475796E-1,3.482651E-2,-4.9532107E-1,-5.0709553E-2,-9.405863E-4,6.5968824E-3,-1.3375299E-2,1.2012488E-3,-6.9765733E-3,1.9219404E-3,2.4524587E-3,-1.4802781E-3],"categories":[],"categories_nodes":[],"categories_segments":[],"categories_sizes":[],"default_left":[0,0,0,0,0,0,0,0,0,0,0,0,0,0,0],"id":65,"left_children":[1,3,5,7,9,11,13,-1,-1,-1,-1,-1,-1,-1,-1],"loss_changes":[2.1030714E1,6.881981E0,8.534044E0,5.8467712E0,4.572687E0,7.4453497E0,8.663933E0,0E0,0E0,0E0,0E0,0E0,0E0,0E0,0E0],"parents":[2147483647,0,0,1,1,2,2,3,3,4,4,5,5,6,6],"right_children":[2,4,6,8,10,12,14,-1,-1,-1,-1,-1,-1,-1,-1],"split_conditions":[-5.619884E-1,1.6566654E-1,-1.0605515E0,-9.981683E-1,-7.0027155E-1,7.2849977E-1,-4.244131E-1,-9.405863E-4,6.5968824E-3,-1.3375299E-2,1.2012488E-3,-6.9765733E-3,1.9219404E-3,2.4524587E-3,-1.4802781E-3],"split_indices":[2,7,6,4,6,4,7,0,0,0,0,0,0,0,0],"split_type":[0,0,0,0,0,0,0,0,0,0,0,0,0,0,0],"sum_hessian":[4.71586E2,1.1949416E2,3.5209183E2,7.641767E1,4.3076492E1,5.0722855E1,3.01369E2,1.0714613E1,6.5703064E1,1.7481773E0,4.1328316E1,3.9745575E1,1.0977278E1,7.3116356E1,2.2825262E2],"tree_param":{"num_deleted":"0","num_feature":"8","num_nodes":"15","size_leaf_vector":"1"}},{"base_weights":[4.585228E-3,2.2786309E-1,-1.8739711E-1,3.1523108E-1,-2.1729107E-1,-3.3304718E-1,-0E0,4.3331543E-3,1.6506863E-3,-1.0002315E-2,-7.2811474E-4,-6.477563E-3,-2.002524E-3,-1.8213203E-3,2.6456846E-3],"categories":[],"categories_nodes":[],"categories_segments":[],"categories_sizes":[],"default_left":[0,0,0,0,0,0,0,0,0,0,0,0,0,0,0],"id":66,"left_children":[1,3,5,7,9,11,13,-1,-1,-1,-1,-1,-1,-1,-1],"loss_changes":[2.042488E1,8.688923E0,6.8287106E0,2.9651318E0,3.4608517E0,5.45467E0,5.439794E0,0E0,0E0,0E0,0E0,0E0,0E0,0E0,0E0],"parents":[2147483647,0,0,1,1,2,2,3,3,4,4,5,5,6,6],"right_children":[2,4,6,8,10,12,14,-1,-1,-1,-1,-1,-1,-1,-1],"split_conditions":[5.470497E-3,7.557462E-1,1.6558516E-1,-5.619884E-1,-3.966736E-1,-5.327977E-1,1.3368E-1,4.3331543E-3,1.6506863E-3,-1.0002315E-2,-7.2811474E-4,-6.477563E-3,-2.002524E-3,-1.8213203E-3,2.6456846E-3],"split_indices":[2,7,4,2,6,6,6,0,0,0,0,0,0,0,0],"split_type":[0,0,0,0,0,0,0,0,0,0,0,0,0,0,0],"sum_hessian":[4.750186E2,2.2077058E2,2.5424799E2,1.8561089E2,3.5159706E1,1.417179E2,1.12530106E2,1.0151177E2,8.409911E1,4.476919E0,3.0682789E1,4.036146E1,1.0135643E2,6.757751E1,4.49526E1],"tree_param":{"num_deleted":"0","num_feature":"8","num_nodes":"15","size_leaf_vector":"1"}},{"base_weights":[-3.38675E-2,4.813763E-1,-8.121263E-2,6.740985E-1,2.2436373E-2,-3.283497E-2,-4.5200506E-1,3.3385628E-3,9.374765E-3,5.5650864E-3,-9.065636E-3,-1.0502444E-3,1.3589726E-3,-1.41159855E-2,-3.517711E-3],"categories":[],"categories_nodes":[],"categories_segments":[],"categories_sizes":[],"default_left":[0,0,0,0,0,0,0,0,0,0,0,0,0,0,0],"id":67,"left_children":[1,3,5,7,9,11,13,-1,-1,-1,-1,-1,-1,-1,-1],"loss_changes":[1.1223813E1,3.0517435E0,7.4541025E0,1.5689583E0,6.3675776E0,4.640334E0,3.5190754E0,0E0,0E0,0E0,0E0,0E0,0E0,0E0,0E0],"parents":[2147483647,0,0,1,1,2,2,3,3,4,4,5,5,6,6],"right_children":[2,4,6,8,10,12,14,-1,-1,-1,-1,-1,-1,-1,-1],"split_conditions":[-1.3186002E0,2.1184668E-1,1.3295412E0,-7.863734E-3,2.5407505E-1,1.0300089E0,-1.6262348E0,3.3385628E-3,9.374765E-3,5.5650864E-3,-9.065636E-3,-1.0502444E-3,1.3589726E-3,-1.41159855E-2,-3.517711E-3],"split_indices":[2,7,2,4,4,5,4,0,0,0,0,0,0,0,0],"split_type":[0,0,0,0,0,0,0,0,0,0,0,0,0,0,0],"sum_hessian":[4.6700082E2,3.802634E1,4.289745E2,2.58481E1,1.2178243E1,3.8113956E2,4.7834923E1,1.2601365E1,1.3246735E1,8.201804E0,3.9764378E0,2.6914294E2,1.11996605E2,3.4335787E0,4.4401344E1],"tree_param":{"num_deleted":"0","num_feature":"8","num_nodes":"15","size_leaf_vector":"1"}},{"base_weights":[3.0040402E-2,3.7408602E-1,-8.614716E-2,-1.7487412E-2,4.231679E-1,-2.4726154E-1,9.600773E-2,4.996901E-3,-9.671473E-3,-0E0,5.307057E-3,8.545717E-3,-2.7318066E-3,3.4981885E-4,6.7755748E-3],"categories":[],"categories_nodes":[],"categories_segments":[],"categories_sizes":[],"default_left":[0,0,0,0,0,0,0,0,0,0,0,0,0,0,0],"id":68,"left_children":[1,3,5,7,9,11,13,-1,-1,-1,-1,-1,-1,-1,-1],"loss_changes":[1.8966694E1,2.5119286E0,1.0389164E1,6.71596E0,4.7339478E0,5.191167E0,5.439959E0,0E0,0E0,0E0,0E0,0E0,0E0,0E0,0E0],"parents":[2147483647,0,0,1,1,2,2,3,3,4,4,5,5,6,6],"right_children":[2,4,6,8,10,12,14,-1,-1,-1,-1,-1,-1,-1,-1],"split_conditions":[-5.619884E-1,-1.1721736E0,1.2394287E-1,-9.402943E-1,1.3195575E-2,-1.992999E0,1.6386814E0,4.996901E-3,-9.671473E-3,-0E0,5.307057E-3,8.545717E-3,-2.7318066E-3,3.4981885E-4,6.7755748E-3],"split_indices":[2,4,4,2,5,3,4,0,0,0,0,0,0,0,0],"split_type":[0,0,0,0,0,0,0,0,0,0,0,0,0,0,0],"sum_hessian":[4.6997314E2,1.19452675E2,3.5052048E2,1.2206275E1,1.072464E2,1.8736447E2,1.63156E2,7.7150984E0,4.4911766E0,2.243365E1,8.481275E1,3.4954445E0,1.8386903E2,1.4891881E2,1.4237185E1],"tree_param":{"num_deleted":"0","num_feature":"8","num_nodes":"15","size_leaf_vector":"1"}},{"base_weights":[2.5776347E-2,-7.278931E-2,1.5630907E-1,4.615717E-1,-1.2467656E-1,9.135278E-1,1.1490869E-1,-9.781267E-3,6.6519063E-3,-3.182882E-3,2.4431327E-4,1.0673177E-2,-0E0,7.234149E-4,6.6445326E-3],"categories":[],"categories_nodes":[],"categories_segments":[],"categories_sizes":[],"default_left":[0,0,0,0,0,0,0,0,0,0,0,0,0,0,0],"id":69,"left_children":[1,3,5,7,9,11,13,-1,-1,-1,-1,-1,-1,-1,-1],"loss_changes":[6.1240664E0,7.2704897E0,5.8767943E0,6.8842797E0,7.219431E0,1.3343887E0,4.194446E0,0E0,0E0,0E0,0E0,0E0,0E0,0E0,0E0],"parents":[2147483647,0,0,1,1,2,2,3,3,4,4,5,5,6,6],"right_children":[2,4,6,8,10,12,14,-1,-1,-1,-1,-1,-1,-1,-1],"split_conditions":[1.6558516E-1,-1.3836484E0,2.332539E-1,-1.242705E0,-1.2450631E-1,1.0195618E0,1.6315823E0,-9.781267E-3,6.6519063E-3,-3.182882E-3,2.4431327E-4,1.0673177E-2,-0E0,7.234149E-4,6.6445326E-3],"split_indices":[4,3,4,1,3,3,3,0,0,0,0,0,0,0,0],"split_type":[0,0,0,0,0,0,0,0,0,0,0,0,0,0,0],"sum_hessian":[4.717988E2,2.66759E2,2.050398E2,2.2407827E1,2.4435117E2,9.457153E0,1.9558264E2,2.2365768E0,2.0171251E1,1.07522606E2,1.3682855E2,7.9658017E0,1.4913516E0,1.828917E2,1.2690952E1],"tree_param":{"num_deleted":"0","num_feature":"8","num_nodes":"15","size_leaf_vector":"1"}},{"base_weights":[-3.774957E-2,4.2457238E-1,-1.1950419E-1,-0E0,5.033836E-1,-3.2805553E-1,-2.8286189E-2,3.1356327E-3,-2.1596523E-3,8.334478E-3,2.510518E-3,5.6674937E-3,-3.5375436E-3,4.620425E-3,-5.9779186E-4],"categories":[],"categories_nodes":[],"categories_segments":[],"categories_sizes":[],"default_left":[0,0,0,0,0,0,0,0,0,0,0,0,0,0,0],"id":70,"left_children":[1,3,5,7,9,11,13,-1,-1,-1,-1,-1,-1,-1,-1],"loss_changes":[1.7546177E1,2.1129522E0,7.400669E0,9.013531E-1,4.1625147E0,2.7437038E0,4.129431E0,0E0,0E0,0E0,0E0,0E0,0E0,0E0,0E0],"parents":[2147483647,0,0,1,1,2,2,3,3,4,4,5,5,6,6],"right_children":[2,4,6,8,10,12,14,-1,-1,-1,-1,-1,-1,-1,-1],"split_conditions":[-9.402943E-1,1.3195575E-2,-4.2829075E-1,7.995435E-2,3.8685727E-1,-2.0273826E0,-1.518355E0,3.1356327E-3,-2.1596523E-3,8.334478E-3,2.510518E-3,5.6674937E-3,-3.5375436E-3,4.620425E-3,-5.9779186E-4],"split_indices":[2,5,4,3,0,0,3,0,0,0,0,0,0,0,0],"split_type":[0,0,0,0,0,0,0,0,0,0,0,0,0,0,0],"sum_hessian":[4.670864E2,6.8951805E1,3.9813458E2,1.1706191E1,5.7245617E1,1.1908697E2,2.790476E2,5.4736495E0,6.2325416E0,2.3445095E1,3.380052E1,2.4876304E0,1.1659934E2,1.5470364E1,2.6357724E2],"tree_param":{"num_deleted":"0","num_feature":"8","num_nodes":"15","size_leaf_vector":"1"}},{"base_weights":[2.346421E-5,2.6977265E-1,-1.3470167E-1,4.365142E-1,-1.0308575E-1,-2.8753725E-1,6.1161436E-2,-0E0,4.912705E-3,7.4576534E-4,-4.6864864E-3,-2.259998E-3,-8.566339E-3,-1.2439195E-3,2.2733035E-3],"categories":[],"categories_nodes":[],"categories_segments":[],"categories_sizes":[],"default_left":[0,0,0,0,0,0,0,0,0,0,0,0,0,0,0],"id":71,"left_children":[1,3,5,7,9,11,13,-1,-1,-1,-1,-1,-1,-1,-1],"loss_changes":[1.7355728E1,1.0117201E1,9.581992E0,2.8291454E0,3.385413E0,5.6316195E0,4.3048906E0,0E0,0E0,0E0,0E0,0E0,0E0,0E0,0E0],"parents":[2147483647,0,0,1,1,2,2,3,3,4,4,5,5,6,6],"right_children":[2,4,6,8,10,12,14,-1,-1,-1,-1,-1,-1,-1,-1],"split_conditions":[-3.7283543E-1,2.6979825E-1,1.4880496E-1,-1.1721736E0,-7.5114137E-1,1.7078471E0,-7.101171E-3,-0E0,4.912705E-3,7.4576534E-4,-4.6864864E-3,-2.259998E-3,-8.566339E-3,-1.2439195E-3,2.2733035E-3],"split_indices":[2,7,4,4,2,2,1,0,0,0,0,0,0,0,0],"split_type":[0,0,0,0,0,0,0,0,0,0,0,0,0,0,0],"sum_hessian":[4.747084E2,1.5918843E2,3.1552E2,1.1086531E2,4.8323116E1,1.7852917E2,1.3699081E2,1.1719418E1,9.914589E1,3.18664E1,1.6456715E1,1.625315E2,1.5997679E1,6.3358234E1,7.363258E1],"tree_param":{"num_deleted":"0","num_feature":"8","num_nodes":"15","size_leaf_vector":"1"}},{"base_weights":[4.850784E-2,2.4270554E-1,-1.1929156E-1,3.2376903E-1,-4.4556248E-1,2.9458344E-1,-1.6887239E-1,5.019895E-3,1.6020698E-3,5.2063186E-3,-6.485063E-3,-1.0705579E-3,7.14617E-3,-1.3093166E-3,-5.5743624E-3],"categories":[],"categories_nodes":[],"categories_segments":[],"categories_sizes":[],"default_left":[0,0,0,0,0,0,0,0,0,0,0,0,0,0,0],"id":72,"left_children":[1,3,5,7,9,11,13,-1,-1,-1,-1,-1,-1,-1,-1],"loss_changes":[1.5228946E1,1.2123612E1,5.0594864E0,5.317564E0,4.6319513E0,4.674057E0,2.9103107E0,0E0,0E0,0E0,0E0,0E0,0E0,0E0,0E0],"parents":[2147483647,0,0,1,1,2,2,3,3,4,4,5,5,6,6],"right_children":[2,4,6,8,10,12,14,-1,-1,-1,-1,-1,-1,-1,-1],"split_conditions":[5.470497E-3,1.041469E0,-1.1539661E0,-2.2210008E-1,-9.297682E-1,1.0300089E0,1.8970001E0,5.019895E-3,1.6020698E-3,5.2063186E-3,-6.485063E-3,-1.0705579E-3,7.14617E-3,-1.3093166E-3,-5.5743624E-3],"split_indices":[2,7,7,7,3,5,2,0,0,0,0,0,0,0,0],"split_type":[0,0,0,0,0,0,0,0,0,0,0,0,0,0,0],"sum_hessian":[4.645047E2,2.1659334E2,2.4791138E2,1.9465797E2,2.193536E1,2.5178562E1,2.2273282E2,9.119672E1,1.0346125E2,3.2441013E0,1.869126E1,1.2453048E1,1.2725514E1,2.0470042E2,1.8032394E1],"tree_param":{"num_deleted":"0","num_feature":"8","num_nodes":"15","size_leaf_vector":"1"}}]},"name":"gbtree"},"learner_model_param":{"base_score":"4.979607E-1","boost_from_average":"1","num_class":"0","num_feature":"8","num_target":"1"},"objective":{"name":"binary:logistic","reg_loss_param":{"scale_pos_weight":"1"}}},"version":[3,0,0]}